<?xml version="1.0"?>
<opencv_storage>
<opencv_ml_ann_mlp>
  <format>3</format>
  <layer_sizes>
    512 40 5</layer_sizes>
  <activation_function>SIGMOID_SYM</activation_function>
  <f_param1>1.</f_param1>
  <f_param2>1.</f_param2>
  <min_val>-9.4999999999999996e-01</min_val>
  <max_val>9.4999999999999996e-01</max_val>
  <min_val1>-9.7999999999999998e-01</min_val1>
  <max_val1>9.7999999999999998e-01</max_val1>
  <training_params>
    <train_method>BACKPROP</train_method>
    <dw_scale>1.0000000000000001e-01</dw_scale>
    <moment_scale>1.0000000000000001e-01</moment_scale>
    <term_criteria>
      <iterations>30000</iterations></term_criteria></training_params>
  <input_scale>
    3.8008896794001612e+00 -1.7535610483118300e+00
    1.4821492824034348e+02 -1.0701993429287777e+00
    6.3114151084279221e+01 -8.0679152709514201e-01
    2.5419904957480978e+02 -7.4241142922269987e-01
    4.8411488688853592e+02 -1.3037234430777955e+00
    1.8824218710410273e+03 -7.3168363860893737e-01
    1.8830883976556979e+02 -1.3032749024915673e+00
    1.1192115953566643e+02 -5.1579057208185908e-01
    6.7825156362731363e+01 -8.3803228828365017e-01
    2.9138858369407285e+02 -5.7945541473317108e-01
    1.2353072412633065e+02 -9.5695113709843527e-01
    9.1669131703487267e+02 -8.5149719673703916e-01
    3.1904437519840570e+02 -1.0765069512610830e+00
    7.4310976085792095e+02 -5.7166344624180021e-01
    4.8327374613169184e+01 -1.1842076436424276e+00
    3.9869413637589311e+01 -9.3364651546535993e-01
    1.4201063728889361e+02 -9.3914654882380477e-01
    7.7199749957814026e+02 -9.1228009174921143e-01
    6.3221158580366671e+02 -5.7113965154945479e-01
    4.4572790251623255e+03 -7.7934418036656883e-01
    3.1519267839691483e+03 -8.2546363151889113e-01
    7.7766650213632120e+03 -5.2872636764000247e-01
    5.9746269625611683e+02 -5.9328665635969358e-01
    2.9224984477797279e+03 -8.5327690790394783e-01
    1.9003032009668539e+02 -7.5588812547917716e-01
    2.1398939112036892e+03 -9.6714023885352451e-01
    5.7323854018516943e+02 -7.7971464094373921e-01
    2.9155084248249000e+03 -9.7500762104270622e-01
    2.5993152944519085e+02 -6.1372446825754068e-01
    2.7041182862594769e+03 -7.6883066772412767e-01
    4.3235059537712573e+01 -1.0724971969096138e+00
    2.2568089005655116e+02 -1.7908329244312242e+00
    1.7867978559016198e+01 -2.5647059008271151e+00
    1.9890075003522045e+02 -2.2975220551811879e+00
    1.1508270339042386e+02 -1.5670129275719251e+00
    2.7767850953750997e+02 -1.4031354064467447e+00
    4.1518368209449113e+02 -1.8811378020027922e+00
    1.0669266844324975e+03 -9.2791035471106931e-01
    2.8173954719700805e+02 -2.0348266578604162e+00
    5.6520175897479078e+01 -4.7289897807282527e-01
    7.1617796715942248e+01 -1.3098196490153238e+00
    8.6555480191109780e+02 -1.2358521018765742e+00
    1.7736984912435219e+02 -1.0867082799653562e+00
    1.4354189305716070e+03 -1.4721107338075603e+00
    3.2839330803075131e+02 -2.3276538169931156e+00
    1.0309542316933284e+03 -9.2322728215481564e-01
    9.6530987758035991e+01 -1.5666571788959567e+00
    5.0693975035301676e+01 -4.6946003032952921e-01
    2.1749374462089065e+02 -2.0288012547128433e+00
    9.5995532791992730e+02 -1.2757595139364499e+00
    3.4410957223445718e+02 -1.0590341380496240e+00
    2.3039102644788386e+03 -1.3662602963161947e+00
    1.7261201246976475e+03 -1.2890727629443850e+00
    6.3316790512515236e+03 -8.3045439189684855e-01
    5.0067572714346682e+02 -1.2675758542477793e+00
    2.2610515590498603e+03 -1.2705858429439398e+00
    1.8465870199777615e+02 -1.3669459748828030e+00
    1.9258894195519531e+03 -1.3107451554063545e+00
    5.9080873762432452e+02 -1.4396900651194307e+00
    2.4096704987855396e+03 -1.3309156494160272e+00
    2.2536122870252095e+02 -1.3304350995427803e+00
    2.4974134813567507e+03 -1.2198382807343202e+00
    2.9616683046472325e+01 -1.3863949476213633e+00
    3.4100137898409463e+02 -1.6996476513235805e+00
    1.8496536003695585e+01 -2.6670923005570235e+00
    2.3289240302010279e+02 -2.5231885880309091e+00
    1.0284936606910068e+02 -1.7193271117201834e+00
    2.9121248757458483e+02 -1.9357475643294519e+00
    4.6900605368650622e+02 -2.3434915723165748e+00
    1.3655978501526945e+03 -1.2110943874345725e+00
    2.7626014443866620e+02 -2.2729460278330302e+00
    1.2060640951789657e+02 -9.1698790535034846e-01
    6.7993726918871388e+01 -1.3267423656314945e+00
    6.0972084865867146e+02 -1.2014417449958872e+00
    1.6665932579684750e+02 -8.4999220513885032e-01
    1.2281346430215401e+03 -1.3706143630903471e+00
    3.6889804647440980e+02 -1.7228115902247390e+00
    1.2156811723411936e+03 -1.0410268316671381e+00
    1.0635207164858488e+02 -9.9220883420475059e-01
    7.5041533539562138e+01 -7.4104198689169209e-01
    2.7924577409622754e+02 -1.9895964771381542e+00
    1.2488420653745975e+03 -1.2070767201066173e+00
    9.1298252472324441e+02 -1.2529439686346877e+00
    2.9981974687146289e+03 -1.2405158575787252e+00
    1.5562126016250322e+03 -1.3045528248498670e+00
    5.6705469333282854e+03 -7.8535754047456485e-01
    8.5140598233694880e+02 -1.2744506468645815e+00
    2.2748431122276556e+03 -1.1916002369605430e+00
    1.9877248687196925e+02 -1.8508762150228948e+00
    1.6638993979330439e+03 -1.3412917598900147e+00
    6.6576105903296161e+02 -1.3573206144919130e+00
    2.4440786607003802e+03 -1.2689249000414391e+00
    2.4659429030416757e+02 -1.8315006222438173e+00
    2.4465930584010757e+03 -1.2287014577185120e+00
    6.0761355525943053e+01 -8.8656062927957668e-01
    4.4956630012938768e+02 -1.4393390148676191e+00
    3.9089116557415742e+00 -1.7990513533533217e+00
    3.1238427523943170e+02 -1.6537642369948751e+00
    6.0113254915977564e+01 -8.1763701327019211e-01
    2.5593433130325130e+02 -1.3535387533449625e+00
    1.8286368401887884e+02 -9.3046965468570209e-01
    2.2194409890139978e+03 -8.1074168286107517e-01
    2.3883952942101507e+02 -1.0864188492865896e+00
    1.0422347330851177e+02 -6.2376712481891983e-01
    6.3182512583692038e+01 -8.6180198874484493e-01
    1.0002840456168711e+03 -6.4589935293999601e-01
    1.3720857258205154e+02 -5.7194363142763249e-01
    1.0323719924370578e+03 -7.7670671188708318e-01
    2.6757562628292504e+02 -7.8572405924415178e-01
    1.6388050902594343e+03 -4.9162863662273809e-01
    6.0042082246920280e+01 -5.1370564316401668e-01
    8.8991473144261519e+01 -4.7173523749180890e-01
    4.2475907315259980e+02 -1.4910411281867277e+00
    1.7216333902078352e+03 -5.5352749713929694e-01
    6.4752532833680061e+02 -4.5233613767771774e-01
    5.5677013427029069e+03 -7.9202408178274575e-01
    1.9197352305231668e+03 -5.3647026196675174e-01
    1.6294970338207777e+04 -3.8552465513766010e-01
    6.4937091732211934e+02 -3.9225526417881623e-01
    4.4768409241449381e+03 -6.0468016623522047e-01
    1.7184723610585544e+02 -9.9844105097516145e-01
    3.9973680858575985e+03 -9.4851334679098009e-01
    5.7320725586080437e+02 -7.1740347842845809e-01
    3.5287246720908724e+03 -8.9224813754466048e-01
    2.0423802223499411e+02 -6.2572171247769159e-01
    6.1763211030211196e+03 -6.9302325694599631e-01
    4.2435773661646792e+01 -4.7379962513427115e-01
    4.1355966720493694e+02 -6.5347041280634521e-01
    1.5734197520028397e+01 -2.2349754773910280e+00
    2.5641005947535615e+02 -2.4882637867944113e+00
    8.7690017989212194e+01 -1.4821294636541009e+00
    2.8316718552499850e+02 -1.4142487506413812e+00
    4.0572984219670104e+02 -1.7072495014950266e+00
    1.1575762649170010e+03 -1.2640932731427608e+00
    1.9548888249411476e+02 -2.2361337759599023e+00
    1.1665102609029526e+02 -1.2883905119910528e+00
    7.6192556082830777e+01 -1.3231377712497898e+00
    2.3449061477850563e+02 -1.0469335546501715e+00
    1.8959335191230531e+02 -1.0881507206257484e+00
    9.4621465287062483e+02 -1.4490804132941628e+00
    3.8749396969414323e+02 -1.5982772494432032e+00
    4.0346615926526152e+02 -1.0515001017935672e+00
    8.9062489959315272e+01 -1.2615380538986340e+00
    2.9219487035515336e+01 -1.2662862741269492e+00
    2.6753805915173871e+02 -2.4479773041655819e+00
    1.2038182013255723e+03 -1.2588600509393206e+00
    7.1145206964761053e+02 -8.3446448776895232e-01
    2.8665448654408888e+03 -1.1025206436666026e+00
    1.9270090448010026e+03 -1.1704978937378390e+00
    5.5477911368779723e+03 -7.8947733247351326e-01
    6.7698607919928236e+02 -8.7796846351171054e-01
    1.7374939624617125e+03 -1.1043265002116847e+00
    1.4143134221935730e+02 -1.0743922914625470e+00
    1.3980311354626997e+03 -1.4460862416347948e+00
    6.1478671072387510e+02 -8.7940305255868367e-01
    2.3907999325874257e+03 -1.2200886098206951e+00
    2.0543715310210970e+02 -7.8330376827802506e-01
    2.4756390639277270e+03 -1.3524304594941696e+00
    5.7897036630396769e+01 -5.8167771297173843e-01
    3.4301958565965691e+02 -1.6500245721025777e+00
    2.3322577295523548e+01 -3.0221202608740443e+00
    2.1601663693093710e+02 -2.5495166231119999e+00
    1.1588546287579260e+02 -2.0241498086297947e+00
    2.0922182255799001e+02 -1.5098555826679005e+00
    2.2862278772960067e+02 -1.5832925052445606e+00
    1.0138767428344770e+03 -1.3874899314307350e+00
    2.2551180266514592e+02 -2.2048814042111209e+00
    5.9326491385815956e+01 -6.4445966153708834e-01
    8.7389248575626127e+01 -1.5757401851355499e+00
    5.4163945390745596e+02 -1.3259094642777112e+00
    2.5424404284468977e+02 -9.6761248798863675e-01
    1.4395980440652211e+03 -1.9454950247891902e+00
    3.7717342041571908e+02 -1.9180428713102649e+00
    7.1674015170895905e+02 -9.3762659298762974e-01
    9.6992082381471292e+01 -1.0948005853035589e+00
    5.8806083952739677e+01 -6.8525136767829076e-01
    2.0615369826096077e+02 -2.0208224616379944e+00
    7.6143265911725200e+02 -1.1809718070698594e+00
    6.7065446415034376e+02 -1.2752792839436686e+00
    1.8867427932759467e+03 -1.3815159223581948e+00
    1.2230587830245258e+03 -1.2767740335804709e+00
    3.4715759354619818e+03 -8.2104009338486150e-01
    7.4149852580293441e+02 -1.2950627300453048e+00
    1.4141212604830923e+03 -1.2646473811523822e+00
    1.9466047523376071e+02 -1.6809188009384415e+00
    1.1218730589992970e+03 -1.4179683521633468e+00
    7.8497408282245578e+02 -1.3583555054564247e+00
    1.9188171665293494e+03 -1.4919857815505433e+00
    2.0610387096129332e+02 -1.0409979427356504e+00
    1.8472505352447588e+03 -1.3748414613725122e+00
    5.4285349350067598e+01 -7.4109288855884747e-01
    2.8583496878533521e+02 -1.4137412289536107e+00
    2.1884831113743388e+01 -2.9776961907227326e+00
    1.7005041543108860e+02 -2.1119235141157668e+00
    7.7982811557041757e+01 -1.3880995885636209e+00
    2.5424752824069708e+02 -1.6715995955683147e+00
    2.7650034120533360e+02 -1.8085965290969566e+00
    9.6977727747404163e+02 -1.3766089405310067e+00
    2.2481625311600155e+02 -2.2599843740008283e+00
    1.1168577176253399e+02 -1.0518656432441706e+00
    8.5002247694103488e+01 -1.5839611642806743e+00
    3.4567721661208901e+02 -1.1127519985567575e+00
    2.0126818538921421e+02 -9.4389236588587000e-01
    1.1023041444622381e+03 -1.5860746739238654e+00
    3.6547454845389285e+02 -2.0019464864257115e+00
    7.7615985218257526e+02 -1.2066936906517927e+00
    7.9275144965214622e+01 -1.0456331714941076e+00
    5.9062798817905602e+01 -7.4425677166600301e-01
    1.8049443933512254e+02 -1.8997854010891093e+00
    5.0275529701616028e+02 -9.7668446742938231e-01
    5.9862559364436970e+02 -1.2511035215479298e+00
    1.6639897196836846e+03 -1.3321634968910303e+00
    1.2597751016582545e+03 -1.2984420482169754e+00
    3.4849146865464195e+03 -8.5175264987241261e-01
    7.2646265135952694e+02 -1.4085950371276015e+00
    1.4075532164439642e+03 -1.3437628239139834e+00
    1.6248445418638568e+02 -1.4297452174410230e+00
    9.2699992082602841e+02 -1.3063641540193580e+00
    7.6706853747870025e+02 -1.5104429259285359e+00
    1.9034745043240544e+03 -1.5221492121045921e+00
    2.1472465329836371e+02 -1.0739897712231974e+00
    1.6999983679298975e+03 -1.3631573494533451e+00
    6.2526904345508541e+01 -8.8942129049118646e-01
    3.1229012336893976e+02 -1.6709480518579747e+00
    1.7803432090712601e+01 -2.4598899422090121e+00
    2.1257651575782930e+02 -2.3431714102486132e+00
    7.8667217788880507e+01 -1.5227990551471466e+00
    1.7259706898395390e+02 -1.9297890220578848e+00
    2.9606319794297332e+02 -1.9704402862308750e+00
    9.9868301054595315e+02 -1.5636404598495202e+00
    2.4900818596948906e+02 -2.6940674526391972e+00
    7.7755411422217549e+01 -1.6923537750168691e+00
    7.7016999223094686e+01 -1.3065017703947539e+00
    5.1580381062264655e+02 -1.0289366846074637e+00
    1.5678801946891028e+02 -7.2309208583870677e-01
    9.8953851384116251e+02 -1.6165934170721694e+00
    3.2160445881344504e+02 -1.5892317470073123e+00
    1.1505187741833895e+03 -1.2799824369380195e+00
    6.3653964131305251e+01 -8.2103264706670298e-01
    6.7564561175683792e+01 -9.6481691283358906e-01
    3.0029394863207744e+02 -2.0694308553807712e+00
    1.1331701430280116e+03 -1.1012710196636801e+00
    9.3107635660487006e+02 -1.3181679327389919e+00
    2.2192383564509155e+03 -1.2400000101123436e+00
    2.0404554113753265e+03 -1.2213949893211298e+00
    4.6487319732030392e+03 -7.5627693011847108e-01
    1.0061503675183221e+03 -1.1754154342423542e+00
    1.7807750946320934e+03 -1.3253221544975278e+00
    1.9620223854868945e+02 -1.3668404773141225e+00
    1.8973496588360667e+03 -1.3464962602233683e+00
    8.2380350306956791e+02 -1.3054205909908965e+00
    2.3198990833706048e+03 -1.4555777084282815e+00
    1.9059438000096674e+02 -7.8290861339229700e-01
    2.6793974786284125e+03 -1.2482999454663781e+00
    4.1626255159167521e+01 -6.0879435031081264e-01
    3.4077902582047460e+02 -1.4784170712714348e+00
    1.5064352173232098e+01 -2.2041696730886500e+00
    2.5454276185859655e+02 -2.0669427026930185e+00
    8.7070580811200315e+01 -1.5251565518677466e+00
    2.5195617940401468e+02 -1.8598553121894839e+00
    3.3757586499021971e+02 -1.9035272567545958e+00
    1.2429412130648325e+03 -1.4138458295271241e+00
    1.7440948917972770e+02 -1.4193706601881406e+00
    1.1800267575552672e+02 -1.3532903376618606e+00
    1.1000333212762507e+02 -1.9145341547826449e+00
    7.0870888918558990e+02 -1.1052806338032715e+00
    2.2586130331625796e+02 -9.5849165343486054e-01
    1.1550348822398835e+03 -1.4781891632328650e+00
    3.4412893369462500e+02 -1.6448975265690713e+00
    8.9412155250818012e+02 -9.8487404258231259e-01
    8.3275107373802044e+01 -8.2047388349421324e-01
    6.3456126589575241e+01 -6.6878897933961023e-01
    2.5011839568046716e+02 -2.0128154407629832e+00
    1.3786136313625791e+03 -1.1402258409976764e+00
    8.3940441867233324e+02 -1.2108868432184992e+00
    2.6317498871855205e+03 -1.2120441971530975e+00
    1.6634346226536743e+03 -1.1530382507391717e+00
    5.6514465925438826e+03 -8.4643208330143072e-01
    9.2562535337498196e+02 -1.0195989773412328e+00
    2.1036884795627607e+03 -1.2534403312769644e+00
    2.6509648434168196e+02 -2.3611969795631045e+00
    1.8599710547097857e+03 -1.2149808541905167e+00
    9.5212912690495625e+02 -1.4447675047158730e+00
    2.3577059889868001e+03 -1.2154750926746509e+00
    2.8511489868530197e+02 -1.2533488047058721e+00
    2.5637574095215828e+03 -1.2421240068545147e+00
    5.6144708367638408e+01 -6.5901900840410788e-01
    4.3592066877811823e+02 -1.3889424783378603e+00
    1.9415007228059750e+01 -2.6278302513717482e+00
    1.7928364789264359e+02 -2.2059953500106473e+00
    9.6817968197655190e+01 -1.6832487474147244e+00
    3.1796254633723339e+02 -1.9451989130461529e+00
    2.7414212840883874e+02 -1.7607379076734011e+00
    1.0082460548729479e+03 -1.4464236498696736e+00
    2.3721498679241557e+02 -2.4613311366643686e+00
    6.0354834550166544e+01 -6.8367775908203998e-01
    1.1774022368478433e+02 -2.1233778642094161e+00
    4.0557618488379336e+02 -1.2091503430641881e+00
    2.4075251251361533e+02 -1.0498460955491156e+00
    1.2133716866367290e+03 -1.8298437854480896e+00
    4.1942066579580035e+02 -2.4199813514814830e+00
    7.5222683838939577e+02 -1.1785292781878969e+00
    7.9005765008097825e+01 -1.1686699365201616e+00
    3.6081636348712067e+01 -6.0193779789609725e-01
    1.8131782945046132e+02 -1.8818296862795694e+00
    5.2146769772572509e+02 -9.9038189060745085e-01
    6.3124807505837373e+02 -1.3697069367090664e+00
    1.6881264302279219e+03 -1.3232675384412025e+00
    1.3042331568383925e+03 -1.3807840479546407e+00
    3.2141229004986844e+03 -8.3730263810586525e-01
    8.5999043069534071e+02 -1.6998740110079174e+00
    1.4925238313508357e+03 -1.4592963590819350e+00
    2.7201572153926179e+02 -2.3418164553018519e+00
    1.0175409424158869e+03 -1.4154715018631083e+00
    9.6236256594141128e+02 -1.8658460197471642e+00
    1.8494270893674855e+03 -1.4907374151015254e+00
    2.8483979191704810e+02 -1.5049747073660416e+00
    1.6894432802753518e+03 -1.4364650339053129e+00
    4.1320268054566604e+01 -7.2647933104435047e-01
    3.0483816848341553e+02 -1.7904843411580060e+00
    2.1001241447443324e+01 -2.7672452640635767e+00
    2.0236092795610921e+02 -2.4779076476070747e+00
    9.4150673148107145e+01 -1.6924693420809431e+00
    2.4710864717312106e+02 -1.7143596030339132e+00
    2.3209948296114848e+02 -1.6141893182245315e+00
    1.0061116641135454e+03 -1.4752007509875786e+00
    1.7829688583118417e+02 -1.8307716789594444e+00
    1.0253196330931709e+02 -1.0363074884059493e+00
    8.7412956625334459e+01 -1.6476957620952211e+00
    5.5999756092210453e+02 -1.5377571550690414e+00
    2.5612601013149305e+02 -1.0128609573220042e+00
    1.2060331792961695e+03 -1.7581424165492716e+00
    4.0328055432058113e+02 -2.2739912131579092e+00
    8.0739571890781156e+02 -1.1985047840949208e+00
    7.5642920051545701e+01 -1.0099003086623524e+00
    4.8324920168982374e+01 -7.5187074120961261e-01
    2.2729123681073403e+02 -2.1509220730209697e+00
    7.6244305086417489e+02 -1.2100894833148277e+00
    7.9711494233133737e+02 -1.5517655314765988e+00
    1.8694767047298574e+03 -1.4302449650270126e+00
    1.2573324994210539e+03 -1.3844468351749684e+00
    3.6361280325977659e+03 -9.2271236821514802e-01
    8.1224604224508948e+02 -1.4759750819119040e+00
    1.5704912491064629e+03 -1.4220565825037172e+00
    2.3114011251414337e+02 -2.0641825082030452e+00
    1.1346469063193153e+03 -1.5160380084958309e+00
    8.5632625265400486e+02 -1.6113275356248156e+00
    2.0093437107536838e+03 -1.6598624507793347e+00
    2.6481999819559746e+02 -1.4381147276824027e+00
    1.6934153816490229e+03 -1.4820882318994335e+00
    5.5617472760800290e+01 -8.4569606579981826e-01
    1.9569545190758132e+02 -1.1965984543337755e+00
    2.1275533027327818e+01 -2.8325450538913630e+00
    2.2171744904262769e+02 -2.4950764626163418e+00
    5.8328652783691155e+01 -1.2535860104738099e+00
    2.8721530843508123e+02 -2.0613005469971881e+00
    2.9403440014081076e+02 -1.7197168810758987e+00
    9.1465138818887499e+02 -1.4476161352736459e+00
    1.3174452239421896e+02 -2.2419108607060827e+00
    7.5154163604519425e+01 -1.7386151901087261e+00
    9.7681459847593402e+01 -1.7270152432599828e+00
    2.4784937561669472e+02 -1.2166300360402211e+00
    1.2680226864809181e+02 -8.1758335847838148e-01
    5.6517982269898584e+02 -1.3581882873772491e+00
    2.4937545853711978e+02 -1.5860306246766847e+00
    5.0269854029172035e+02 -1.3363039044981688e+00
    6.0160401858058577e+01 -1.5594599187382465e+00
    1.9758932175644212e+01 -1.3825367394942156e+00
    3.1441523702243620e+02 -2.4994502717824787e+00
    1.1355557432483511e+03 -1.2607842803165881e+00
    1.0606593025095349e+03 -1.4524326231153886e+00
    2.2559686078483969e+03 -1.2477366376184269e+00
    1.6578735395786189e+03 -1.3034622486251690e+00
    4.2924462656451560e+03 -8.0556030557202740e-01
    8.6215468421347487e+02 -1.4345865663528323e+00
    1.3825752017535103e+03 -1.3291588196019251e+00
    2.1486392782054293e+02 -1.7060707467633642e+00
    1.2433119781354551e+03 -1.4602092854406197e+00
    7.4837933549664990e+02 -1.2961480917845043e+00
    1.8592750874628891e+03 -1.3938133076842796e+00
    1.9802500134886989e+02 -1.0299528613948039e+00
    1.6853002473256790e+03 -1.3461711829692442e+00
    4.9821114268668026e+01 -7.4251649034072542e-01
    2.1866598205400624e+02 -1.9763711407199929e+00
    3.7987779893561555e+00 -1.7487425727599641e+00
    2.5237654573683037e+02 -1.2754700691132657e+00
    5.7688644178300109e+01 -7.3851466181546710e-01
    2.1068358595985109e+02 -1.0003987094657356e+00
    1.7560645693548028e+02 -8.6425026407567873e-01
    1.4237296392855990e+03 -6.0771439440181207e-01
    1.7661873894771736e+02 -8.2424093837156320e-01
    1.2093420128295028e+02 -5.4741846154867124e-01
    9.6977109587847508e+01 -1.0778166319619498e+00
    1.0954068553901609e+03 -6.8011697138303362e-01
    1.1997108448389294e+02 -4.2419380926761141e-01
    1.1058061046859555e+03 -7.7071055777914832e-01
    3.7553844022225223e+02 -9.7303451760553850e-01
    9.7957304701491034e+02 -3.9629999636773855e-01
    7.9168304371455164e+01 -5.5070155384350883e-01
    6.9673335420491000e+01 -3.9181710943868547e-01
    3.5831514603503064e+02 -1.3595575268954723e+00
    2.7363787655140145e+03 -7.3969868568946029e-01
    8.7252605504692269e+02 -5.3654515486173926e-01
    4.8658342442500661e+03 -7.2009295123749661e-01
    3.3780213439153490e+03 -8.9099854476792129e-01
    1.1039384856281577e+04 -3.7153121239183640e-01
    6.2697622911167036e+02 -3.8197249414279499e-01
    3.9758949728940415e+03 -5.9046070348190127e-01
    2.1937174379164082e+02 -1.4433401099691512e+00
    3.0863688722536895e+03 -8.6971832075793831e-01
    6.9787162380283769e+02 -7.0466064171175458e-01
    3.5797056579018299e+03 -8.7488560646611602e-01
    1.8489240025204342e+02 -7.4234753587882651e-01
    4.3609157654527426e+03 -6.9283095051164822e-01
    3.4333058971484974e+01 -4.2279833083742280e-01
    4.9346278222071822e+02 -6.7366733608173324e-01
    1.8315054511120437e+01 -2.5288327942839950e+00
    2.4853569408857820e+02 -2.1905625421177835e+00
    1.1994464065208732e+02 -1.8646236021437430e+00
    2.8554118618325583e+02 -1.3854816250578161e+00
    3.2915952312670015e+02 -1.9785183322744249e+00
    1.2998048356591428e+03 -1.1741329572808403e+00
    2.5906659896491283e+02 -2.2508350683475240e+00
    7.8931569752039763e+01 -6.1906362629068146e-01
    1.0599065117986220e+02 -2.0445220790191674e+00
    4.8951930969434210e+02 -1.0732341128313156e+00
    4.0632401286499879e+02 -1.5010115657497232e+00
    1.6572600085719289e+03 -1.7029853540878899e+00
    4.3756414219891843e+02 -2.5763026063035639e+00
    7.6484138888652581e+02 -7.8230866288048140e-01
    1.0750616160806074e+02 -1.2416429570861940e+00
    5.1295699944035540e+01 -6.1173052695030039e-01
    2.2403219055439152e+02 -1.9368770272047233e+00
    1.0037991564160706e+03 -1.0252242742904498e+00
    8.3820493842857945e+02 -1.2524315604920035e+00
    2.9917983458217500e+03 -1.2371204400946252e+00
    1.1769221241911619e+03 -1.3583807784114219e+00
    5.2601058983603161e+03 -7.9362905419904095e-01
    8.6117971082694817e+02 -1.4401718465344624e+00
    2.1807208735988261e+03 -1.2085438216475932e+00
    1.6252319996358696e+02 -2.1711905510587952e+00
    1.4696905606197033e+03 -1.4219615666681042e+00
    6.4003548340149371e+02 -1.4083114207200036e+00
    2.3130132743976114e+03 -1.3373554100060172e+00
    1.4560691777594067e+02 -1.9178874536952921e+00
    1.9597288402480876e+03 -1.2647310307064892e+00
    5.4133636441053184e+01 -1.2365238853647511e+00
    3.3846576643663224e+02 -1.3967735222674404e+00
    1.7471796897064284e+01 -2.4886536500732714e+00
    2.3846233081054226e+02 -2.5408407373844768e+00
    1.1661861638882213e+02 -1.7439767261857084e+00
    2.8604257294608828e+02 -1.5089374997829748e+00
    3.0563787878101203e+02 -1.7115640098933043e+00
    1.2901369122364008e+03 -1.2979679580746009e+00
    2.5242233387318748e+02 -2.4279401844093691e+00
    8.8332405417449252e+01 -7.9086704670691488e-01
    1.2227111059292625e+02 -2.2911022231365448e+00
    6.6020320045137566e+02 -1.2057573962784014e+00
    2.4254979194880383e+02 -1.3450268248455974e+00
    1.3700518946130803e+03 -1.5616462396834887e+00
    2.5625787928981060e+02 -2.2179296521115712e+00
    9.7985216732861306e+02 -1.1663375547059145e+00
    7.5007125356553274e+01 -1.9801065541388778e+00
    6.5100022525142919e+01 -7.9273497328587783e-01
    2.2157536218246827e+02 -2.2597411168746708e+00
    9.7332712218380198e+02 -1.2810306339964017e+00
    3.8949605438485605e+02 -1.2810916170910949e+00
    2.1115424628836804e+03 -1.3515249533979905e+00
    1.2015192753422270e+03 -1.2949695271528709e+00
    4.1400144580808428e+03 -8.3653127329895005e-01
    6.3969310633486612e+02 -1.7855126808369268e+00
    1.5956767371396545e+03 -1.2999547937754465e+00
    2.5750266770674671e+02 -2.5251067404621628e+00
    1.4098824583618164e+03 -1.2833368453434366e+00
    4.0482341473733345e+02 -1.3589416089597046e+00
    1.7662961806284238e+03 -1.3455505433168968e+00
    1.9308446513879178e+02 -1.9849202607064520e+00
    1.6802932258787196e+03 -1.2519422936419253e+00
    1.6695932377134525e+01 -1.3932961203935583e+00
    2.0253332508689385e+02 -1.8278965623894157e+00
    3.8992326052384350e+00 -1.7516003745156183e+00
    1.4336833346088096e+02 -1.1096336980482704e+00
    5.1043520480957987e+01 -7.7417258940983458e-01
    1.8507297916018950e+02 -7.0647474752036976e-01
    5.3639707866222341e+02 -1.4945183521454659e+00
    1.8704070447515078e+03 -7.5240730694962599e-01
    1.7371599573489956e+02 -1.4866923908256384e+00
    8.3353066101682074e+01 -5.9811185814333856e-01
    9.2732025262084989e+01 -1.0713974012536063e+00
    2.5616067751002197e+02 -5.6847990207995325e-01
    1.4582344072379331e+02 -9.6096339974743417e-01
    8.6442953027171734e+02 -1.0107527464077550e+00
    2.6730506333936580e+02 -1.1052831987439578e+00
    8.9634318955296135e+02 -6.6941602342493722e-01
    4.6444969817529469e+01 -1.5889117112892475e+00
    3.3903912313753260e+01 -8.8961947423331167e-01
    1.4599057407096154e+02 -9.4568184256608812e-01
    8.1452321907629778e+02 -9.2095727418862916e-01
    9.1503413191496463e+02 -7.3644479832457344e-01
    4.2113797709314504e+03 -9.5353730743549892e-01
    3.0309212657478838e+03 -9.1577628564317148e-01
    6.6711808145485047e+03 -5.5690522673321341e-01
    9.7728240902027903e+02 -8.0057618587332469e-01
    3.1497820131600342e+03 -9.4394951333503918e-01
    2.2711164981985837e+02 -9.9738592798929426e-01
    2.0732791627332585e+03 -1.1167755810862838e+00
    7.3421383100094602e+02 -1.1495874043984913e+00
    2.5458988100157544e+03 -1.0948142981943529e+00
    1.8214565060954754e+02 -6.9940251463865466e-01
    3.2587239574411101e+03 -9.7401974595471297e-01
    3.1804659433203287e+01 -9.4913988812858074e-01
    2.1170648379723676e+02 -1.6540281967175896e+00</input_scale>
  <output_scale>
    5.2631578947368418e-01 4.9999999999999994e-01 5.2631578947368418e-01
    4.9999999999999994e-01 5.2631578947368418e-01 4.9999999999999994e-01
    5.2631578947368418e-01 4.9999999999999994e-01 5.2631578947368418e-01
    4.9999999999999994e-01</output_scale>
  <inv_output_scale>
    1.8999999999999999e+00 -9.4999999999999996e-01
    1.8999999999999999e+00 -9.4999999999999996e-01
    1.8999999999999999e+00 -9.4999999999999996e-01
    1.8999999999999999e+00 -9.4999999999999996e-01
    1.8999999999999999e+00 -9.4999999999999996e-01</inv_output_scale>
  <weights>
    <_>
      -1.1108546719970838e-01 2.0832062234541412e-02
      1.0303827760971142e-01 -1.0199507728045411e-01
      1.2835657369678571e-01 6.9969971657453112e-02
      -1.1735879018526454e-01 1.1586121585336667e-01
      -1.3026339235123086e-01 4.5672152466412000e-02
      -6.4691649976424848e-02 -1.0722341420983635e-01
      1.0067265111186498e-01 -2.7915271824168860e-02
      1.0531382456721558e-01 -1.5691641347337940e-01
      -2.0055246083827284e-02 -9.4277636447446064e-02
      -6.3927043085802229e-02 -1.1716255415479834e-01
      -1.0815164320357444e-01 -1.0112384380361633e-01
      9.5599921072415148e-02 -1.1693804718717152e-01
      -1.5590202874203096e-01 -2.5986668011266156e-02
      -7.5968017567709101e-02 3.0343589773527767e-02
      -6.5268400697885892e-02 9.9893924854890945e-02
      2.0079129019231465e-01 -1.2797862469149504e-01
      -8.5784686355070208e-02 1.3381076331875086e-01
      -1.6357174346100407e-02 9.7776270244121707e-02
      1.2695662559779849e-01 -1.1183655140130441e-01
      1.9362242030988203e-01 1.0021298052948074e-01
      4.0117486183976148e-02 -6.8546138080360974e-02
      -4.8236154145037971e-02 2.0001248317247763e-01
      -8.8808113159987767e-02 -3.5287000418456831e-02
      -1.0549976326916696e-02 -1.0845560509035382e-01
      5.8323810337932484e-02 6.9935027018316220e-02
      3.7031871332244358e-02 3.3552144590677853e-02
      -8.4126839319090749e-02 7.8705811943421009e-02
      -6.2378886560191242e-02 1.3253551384607759e-01
      6.4653034676159890e-02 7.1890130047737547e-02
      -1.0097080274367168e-01 1.1097369743469165e-01
      2.4842096827115026e-01 6.4777763162354077e-02
      -8.5396493943639365e-02 1.2196279910483823e-01
      1.8626721183551465e-01 2.5833373101223901e-02
      -6.7001545102186297e-02 -1.1350722544961468e-01
      -8.4730800347246213e-02 -1.0691807878006337e-01
      -1.4042553829691143e-01 1.0089496961379027e-01
      5.7726201351984092e-02 -1.9263166054061021e-01
      -8.0130270509760279e-02 -6.5152066427015348e-02
      -1.7520873421453789e-01 2.4916894093731581e-01
      -1.5491628410918021e-01 4.9516488088267224e-02
      3.8473307931607754e-02 5.1800270585105702e-02
      -1.0297225377171018e-01 6.2662370151729041e-02
      -5.8091699643503525e-02 -1.2350606156478645e-01
      6.3812011838394189e-02 -1.7399800126178216e-01
      8.7659306876224821e-02 -6.6813616296677078e-02
      1.0817979141395924e-01 8.1372084312960294e-02
      -9.1133846494599227e-02 6.8553902977884691e-04
      -1.1176727278301370e-01 1.7744241524143903e-01
      -4.4051598414384212e-02 1.0897639791949484e-01
      -1.7363806474795383e-02 1.6392680826537864e-01
      1.2600740720409734e-01 9.6894203009008140e-02
      -1.2621916901076993e-01 4.9191184928211007e-02
      1.9902146083218594e-01 8.0251665690487181e-02
      1.2274783440485463e-02 -4.3811230959690091e-02
      3.7668859804030348e-02 -1.5021368949741903e-01
      -2.5589022240239978e-01 6.1833186804753290e-02
      1.0634423113869031e-01 -8.5266490806412271e-02
      -1.2323288982931708e-02 -9.8607554208619275e-02
      -3.7195825562197971e-02 1.9359785349225678e-01
      -2.6748702841653699e-01 -3.7287740360345878e-02
      4.7313465173854263e-02 6.2455199099017443e-02
      -3.6847768637962589e-02 -5.7942466389012647e-02
      -3.6317420386609955e-02 -3.0746917230264476e-02
      7.4984038207363476e-02 -6.3543567104667256e-02
      3.6290020564082155e-02 -9.0929871483571664e-02
      2.6616694266785871e-02 2.5320647541814484e-02
      -4.8154295729803967e-02 -6.4196896037205534e-02
      -6.1873663677896845e-02 7.9027380272319148e-02
      -7.8293090424954498e-02 4.2116217423143830e-02
      5.7703043365774517e-02 6.7998318979773778e-02
      -1.8200913678128264e-02 5.1775150145247889e-02
      -5.4768456374958085e-02 -2.4816068732869609e-02
      6.7802080890786987e-02 -1.8811230775391707e-02
      8.1076389747835126e-02 -1.2011256745053654e-01
      1.1624371763459715e-01 -6.7954140535351898e-02
      -7.9615016803988997e-02 5.0439100294663530e-02
      4.4758935821312587e-02 1.6580170105392814e-02
      -1.3889894351906646e-02 -7.7371856436479536e-02
      6.7458337076060186e-03 -5.9088506439729273e-02
      -7.3449977519682921e-02 -5.5353123373261919e-02
      5.3911142205021112e-03 -1.0396305856954122e-03
      -3.3613079237235180e-02 1.0341890598017958e-01
      -5.7695413439681834e-02 -5.0634408851539994e-03
      -5.2519479660712722e-02 -8.0764559088126062e-02
      5.2709167401983600e-02 5.5968007679230283e-02
      8.6282728156229088e-03 1.9237783914855266e-02
      -7.5938582276679559e-02 3.6628005883458034e-02
      -1.5258720412584057e-02 1.3749883408558949e-01
      7.0406057252897239e-02 5.1193665089641474e-02
      -1.2598898286261695e-01 7.5067803708710371e-02
      1.5972482150222220e-01 6.1968375841581963e-02
      -6.7075043022570127e-02 5.9161424315099735e-02
      1.1656538892555587e-01 -2.5989900832547059e-02
      -5.9137859598889064e-02 -1.4339937148771248e-01
      -4.0011415937196156e-02 -6.7383948786046546e-02
      -1.2436829976866771e-01 3.8393750261299028e-02
      2.3701207744265793e-02 -8.5200727066899240e-02
      -1.9173694862389422e-02 -7.5848961771624495e-03
      -9.3840454417192729e-02 1.4759181404226296e-01
      -1.5706432641891979e-01 3.7305287516169849e-02
      1.4552016732365213e-02 -7.2057419222990816e-03
      5.2253090192117005e-02 -4.4076155270391271e-02
      -6.4936962602414217e-02 7.3108318216876328e-02
      4.0427121990609646e-02 -1.8323821811663161e-02
      5.9661628662195675e-02 -2.6975195267539016e-02
      -9.4492921188464002e-02 4.5089697528329892e-02
      -2.8723894442699380e-02 1.0068012611329676e-02
      -1.9366644464454033e-02 3.7473570667976228e-02
      -6.3948260346211620e-03 1.0420705110321468e-02
      2.9720096932270311e-02 4.1440689545632063e-02
      -4.6853506785981242e-02 9.4157378487403666e-03
      -3.9424541011135392e-02 8.6745490475851630e-02
      5.2644258021829916e-03 -4.6473596315747524e-02
      8.9148841994495139e-03 4.0944765136219932e-02
      6.7334579198360806e-02 4.3866890222758236e-03
      -1.2180410834502399e-02 7.2986261772347183e-02
      1.0944869351567198e-02 4.3546441031888414e-02
      2.6732859422935771e-02 -1.2307703647561993e-02
      1.7697366874847510e-02 -1.0830952081556785e-02
      -2.0236234028796568e-02 -2.8861891046165523e-02
      5.8022514550162718e-02 4.6817339520555522e-02
      -1.0073643014601359e-01 1.5576265812355819e-01
      -4.8388027189305502e-02 -1.3404469422372073e-01
      -3.8391883952956049e-02 -1.7434213798984580e-01
      7.3719985000025384e-02 2.7748742213899599e-02
      1.1350416217664103e-01 4.3589446652982040e-02
      -1.2810836531033443e-01 1.0487387446455302e-02
      -7.2555921980613683e-02 2.2950153006324575e-01
      -1.4280918488778620e-02 1.0002999963485897e-01
      -1.5994362435257739e-01 1.6351941938883119e-01
      2.0530412395495662e-01 9.1452654227493727e-02
      -1.2048214656890040e-01 5.3110114876236784e-02
      2.4223295531544062e-01 8.7693817365775875e-02
      -4.8867796175635123e-02 -1.4615970856967647e-01
      -4.2945278235957653e-02 -1.7453545708713816e-01
      -2.8763090432741972e-01 1.5580054209376826e-02
      8.0617965225766267e-02 -1.3115669224459822e-01
      -1.9762766082554482e-02 -3.6573730774140070e-02
      -7.5223580763124215e-02 2.3842998467709065e-01
      -3.1926597053279210e-01 3.0639307460392836e-02
      1.1987636319729299e-01 1.5562377657542031e-01
      -1.0161346265870704e-02 -8.8689297520636548e-02
      2.4408774468873354e-02 -2.2213518719168327e-02
      2.1760424359012159e-01 -8.2448527015675302e-02
      1.0427259827108579e-01 -1.5113422680464869e-01
      7.6471733363677949e-02 5.3554448130627028e-02
      -2.8196142160264642e-02 -1.6339627610416663e-01
      -1.5608366351008918e-01 -8.1848751615420847e-03
      -2.1264977383554726e-01 5.7840821530868558e-02
      2.3631716329295380e-01 9.0406268275692175e-02
      -1.8563295162690127e-01 3.2537564494259485e-02
      -6.6351282444527745e-02 3.5866927424489173e-02
      8.0763593134650213e-03 -4.8202392896207369e-02
      1.3749152709127874e-01 -6.5721726776300834e-03
      1.5534338305690570e-01 -4.0868880619268751e-02
      -4.4876741395001628e-03 5.1597535661726639e-02
      8.8566527609202500e-02 5.8931306144554052e-02
      1.1770497062115835e-01 -1.4069126797660034e-01
      8.3489947881949383e-02 -1.6996018536992344e-01
      -7.0794754840809270e-04 -1.4379809551659267e-01
      8.0422027974320354e-02 7.6072297648045448e-02
      -1.2035435784168852e-01 1.2293897767543581e-02
      -8.5440405378087711e-02 -1.0226885664459720e-01
      9.9582567677826944e-02 -8.8987374722858475e-02
      1.0194783988138378e-01 -6.6099311681004094e-02
      7.3802104661988457e-02 7.1709757074818845e-02
      -7.0007219699229489e-02 -6.8109157332979106e-02
      -8.9396745772151814e-02 8.6545143279101525e-02
      -6.7161894457075530e-02 6.5447174865708641e-02
      5.0629723348132018e-02 8.8003137969978093e-02
      5.2356212922950257e-02 6.1626107066926471e-02
      -6.9007347239519443e-02 7.8284969990529987e-02
      1.1047852216789633e-01 -4.1989957304446331e-02
      3.3344088093941224e-02 -9.0742828946368426e-02
      4.5589283691022171e-02 -3.7523775243351487e-02
      -8.5100129054312482e-02 5.5524358215949268e-02
      7.9752875775950222e-02 -2.0442730500389753e-02
      3.6217216423519001e-02 -9.1160460150689973e-02
      6.7993507397188608e-03 5.6735780123800171e-02
      -8.5291834825819382e-02 -9.5085006508066436e-02
      4.2253523207621442e-02 -4.4070569498887310e-02
      -6.2417434942486881e-02 1.5489291717201129e-01
      -1.2558088282339258e-01 -3.9186340351933191e-02
      -1.2088654514422308e-01 -5.1310702870597615e-02
      4.0319005871740907e-02 8.3435264682076321e-02
      3.0361113285843132e-02 2.9839629766587571e-02
      -6.2400328655923001e-02 4.3243049609044189e-02
      -2.4075205518666810e-02 8.7256727498758999e-02
      7.9845983561116662e-02 3.3781125158633546e-02
      -1.3409722747262712e-01 4.6845610228438674e-02
      2.0724454076263785e-01 2.7096692129988411e-02
      -3.7809809264498749e-02 5.8003876316065371e-02
      1.0426451466308589e-01 4.7952922330714437e-03
      -8.2950392757540292e-02 -9.2878917318852727e-02
      -9.9738414434453249e-02 -5.4941281730207313e-02
      -8.9825462217123161e-02 4.1792098750773651e-02
      3.5177307967797215e-02 -1.1151708938373617e-01
      -9.7495826256265808e-02 -1.2686518439251775e-02
      -1.1838108987072452e-01 1.6987065721941366e-01
      -1.2810489941941819e-01 1.0245021387970930e-01
      -2.9229458135492218e-02 -2.1801079882103210e-03
      -7.1301567752780140e-02 1.4201934370359406e-01
      -5.1715527236361379e-02 -1.0185393154634838e-01
      6.2612321663725767e-02 -9.0033814688321043e-02
      3.4759361071390639e-02 -7.9109654069090055e-03
      4.6954852537948566e-02 1.4172108056656495e-02
      -6.4201308215530023e-02 3.0667540902255330e-02
      -2.5467396459042974e-02 1.4348828607075334e-01
      5.1868398037633601e-02 4.4533465180233975e-02
      -9.3220704934840526e-02 7.8714676661094857e-02
      1.4121630214769745e-01 4.4971366053492660e-02
      -6.0509457615974732e-02 6.4511055856561611e-02
      1.5363544968134638e-01 1.0676344185100732e-01
      3.1554609085572373e-02 2.9060656232102546e-02
      -3.1061868050231988e-02 -1.1615930225585458e-01
      -1.7881814174961513e-01 3.6212498723166926e-04
      5.5150519166055796e-02 -1.2782461933301398e-01
      -9.4039353451064928e-02 -8.5414936437346357e-03
      -1.0654907577003812e-01 1.8301598540905784e-01
      -2.0208000718386251e-01 -5.2320111561222946e-02
      -6.5037980698550435e-03 1.0330424601294547e-02
      -7.6166885700664100e-02 5.7901776136234352e-02
      -1.4071954109142140e-01 -9.2511832119767878e-02
      -9.3109674116889252e-02 -1.0628893123233495e-01
      4.5990384672193255e-02 4.9490128731467117e-02
      6.0960535706133141e-02 3.1084600375664281e-02
      -9.3586352479288079e-02 3.3434667116897694e-02
      -2.1090612543750914e-02 1.5826368195891488e-01
      2.9098214662801866e-02 4.8848006215504072e-02
      -1.9331452043113168e-01 9.0559761576990333e-02
      2.2330042939656611e-01 4.7594073724113325e-02
      -7.5656600619925823e-02 1.4970980731155265e-02
      1.7629730232104232e-01 3.7509156189079580e-02
      -6.8790907752972349e-02 -7.3272926194518070e-02
      -6.1038340944943176e-02 -1.1209341970033694e-01
      -2.1784453165347556e-01 4.0153579431509205e-02
      5.1098221060359175e-02 -8.3279408089088194e-02
      -8.4781830097706207e-02 3.2192550408310607e-04
      -6.1479578771094827e-02 2.8156140112475053e-01
      -2.3083469964220063e-01 1.1506692873162612e-01
      3.9495789944201526e-02 4.0161755329517781e-02
      -6.5121887473404333e-02 7.0574989547943015e-02
      -1.1665320813498128e-01 -5.5045792530873924e-02
      -3.8720312453577405e-02 -6.0663744293673244e-02
      3.6329339283854137e-02 5.6377018984173632e-02
      1.5251216161242986e-02 2.4992943905251173e-02
      -8.0321131420225803e-02 1.5331694399904446e-02
      -5.4019553851767706e-03 1.2961477144056924e-01
      7.2635850963377727e-02 5.5837790926601169e-02
      -8.1876517624420872e-02 5.7449845075209567e-02
      9.2525024043218149e-02 6.5060637724987366e-02
      -5.4142860745696228e-02 3.3483271212926533e-02
      1.2898907459562892e-01 -1.2948954106959685e-02
      -5.0433169756261810e-02 -1.3100456402810870e-01
      -6.2433383879898843e-02 -1.2194538108809175e-01
      -9.6519273667655003e-02 3.3349549184690748e-02
      3.3754626150419069e-02 -4.2479390399748657e-02
      7.5687103401998320e-03 -8.3369100762775844e-03
      -4.1677865803449933e-02 1.0300858360436778e-01
      -1.2069868018634837e-01 2.6867922445030477e-02
      1.7601377094406379e-01 6.5726650896314491e-03
      -3.1519565818856600e-02 3.4082655149496308e-02
      -2.9733108586885052e-02 1.7290668780049475e-02
      -6.9184929939857309e-02 3.1483745463764895e-02
      1.4501041440506540e-01 3.6390070218727991e-02
      -2.7085088761834523e-02 1.5626734249876839e-01
      -4.4205161993331500e-02 -3.5380488437474357e-02
      1.2719226710460807e-02 -4.2111329261527136e-02
      4.6941678224197798e-03 -2.4379385773941286e-02
      1.2313273181999138e-02 -2.9994471329386745e-02
      -2.4874052895653555e-03 -1.6389311647145310e-02
      1.5047573807876698e-02 7.7381021737133503e-03
      8.1371205580411023e-03 -9.0420774958294356e-02
      -2.3212501339915939e-02 -5.6867080313203630e-02
      1.2760761175289626e-02 -3.8216486931802914e-02
      1.0478982770482894e-02 4.7770422753488076e-03
      9.0121837884699334e-03 -3.6045755391142048e-02
      1.0435429581402669e-01 -5.2194492305115995e-03
      -4.6294917040336440e-02 -3.5965455100577387e-02
      -4.0433689725054602e-02 1.6510613431355629e-02
      -2.2287527276848150e-02 -1.5672867964818815e-02
      -6.2404883069054763e-02 2.5100325367136272e-01
      -5.4169249892230806e-02 -9.8536877018624028e-02
      -3.2916847318368203e-03 -7.7581946668773674e-02
      6.6924736959917868e-03 7.0329530880203273e-02
      6.3396314384761704e-02 -2.0623781005417573e-02
      -4.0320905035839058e-02 4.8662171841535491e-02
      6.0675141225870581e-03 1.3366473083702266e-01
      8.1696621900427965e-02 3.2089838897784655e-02
      -2.0709547885787208e-01 6.1151843097022367e-02
      2.1900770680208573e-01 1.8224906035629488e-02
      -5.0673980615059809e-02 5.4579095931352552e-02
      1.2869946322082607e-01 1.0816429407356089e-01
      -2.5510851692823227e-02 -2.7005432763016972e-02
      -9.3703350514704978e-02 -1.6653058728511805e-01
      -1.7344279710925423e-01 -1.8251078171698912e-02
      1.2132198679718698e-02 -2.1447449329895094e-01
      -1.1849346074439759e-01 3.5567019919476785e-02
      -1.7209976957044823e-01 2.3105006642787512e-01
      -2.0652982005586817e-01 2.3060944866153898e-02
      4.3638165348666283e-02 -3.1565660646994335e-02
      -6.0825728674663286e-02 2.2152556371430043e-01
      -6.2753096312460538e-02 -6.2775980547422894e-02
      2.5653350927033386e-02 -8.3174765355559940e-02
      4.2915602882982552e-02 3.6341328520512306e-02
      6.9583198899379750e-02 3.3295133055138648e-02
      -4.4469443079669144e-02 1.6503699136415015e-02
      -5.5796487652285294e-02 6.0606735686529987e-02
      2.3324706911482470e-02 4.1215592739583175e-02
      -7.8648802069618065e-02 7.5692661625638952e-02
      1.7305794330266272e-01 1.2944181778236018e-02
      -5.6565163189517383e-02 6.7423550108041769e-02
      1.0649124955919721e-01 4.9292511756974446e-02
      -1.5068940052165999e-04 -4.3500603890763656e-02
      -4.2241370033616728e-02 -1.1807739657578736e-01
      -1.1362500934165481e-01 3.0390305821552333e-02
      5.2352059179060474e-02 -1.9817954127239604e-01
      -8.3547284673917560e-02 -3.8302529700563429e-02
      -1.7942235200943304e-01 1.4865444283150042e-01
      -1.5540537359384549e-01 -5.1094192242797263e-03
      1.6205583898571137e-02 -5.3567875140372076e-02
      -7.8831438290022107e-02 2.4166698042407728e-01
      -1.3734712547414940e-01 -5.4780565998324988e-02
      -1.3633150493399079e-01 -7.5575325616431072e-02
      3.2664364605816218e-02 1.3261989247118799e-01
      2.8373882153921594e-02 1.2039046270326616e-02
      -1.0119313219671357e-01 8.6529874131128753e-02
      -2.7581264627452511e-02 1.1179421556064613e-01
      1.4507037238078249e-01 3.5500378847129158e-02
      -2.0760178492472928e-01 7.3502327019071112e-02
      2.8386147387295613e-01 3.0288836886333523e-02
      -5.0274893196806107e-02 7.5168641043674503e-02
      1.6046622029455310e-01 3.7836417836840948e-02
      -1.1444204352895687e-01 -1.3370012562048628e-01
      -1.6143747071574124e-01 -9.1561413781889728e-02
      -9.7458093701667026e-02 1.9348136700313722e-02
      5.3758483407929991e-02 -2.1488938673284139e-01
      -1.2376165092926472e-01 -1.9299940588673393e-02
      -1.9788937054458175e-01 2.3627711811735147e-01
      -1.3300581289078464e-01 8.1172610654733551e-02
      1.4885485928849085e-02 -4.9062997933250370e-02
      -8.4110483140687441e-03 2.0072548947156940e-01
      -8.0032145452317835e-02 9.3403076128870729e-04
      -5.1488545838862514e-03 -2.1246591209114565e-02
      5.8807924336612303e-03 9.2033701533234175e-02
      -8.2255331733374730e-03 -1.2891224265138564e-02
      -3.1051323963800066e-02 4.2380278553169441e-02
      7.1334071212171661e-03 3.7371551868901558e-02
      6.2878659941242684e-02 6.1950876340873314e-03
      -8.7237939444776216e-02 2.1301035490268145e-02
      1.1451110919101601e-01 7.0366877919372448e-04
      -1.0582403361671815e-02 2.7231379858362003e-02
      3.6871783048286227e-02 6.9682984910796775e-02
      -2.5054731976057410e-03 4.0596675493164751e-02
      -5.9866797251559911e-02 -7.9388211310715912e-02
      -1.9006697425063692e-02 1.5641635516040506e-02
      1.5697211972570336e-02 -1.8902828060303581e-01
      -8.7506379957587102e-02 5.6931769492885977e-03
      -1.4917331424348743e-01 9.0592543111143897e-02
      -3.9628851396671966e-02 5.5160834797495810e-03
      4.9198600544568351e-02 8.5521393001945473e-02
      -6.0294875756736182e-03 1.2090883720355297e-01
      -1.3646509235261237e-01 1.4653868756069595e-02
      -1.5079449217486900e-02 -6.5606942071089927e-02
      -1.2586432323309292e-02 9.3915476497665351e-02
      1.7361402649234574e-02 5.6563937809337571e-02
      -6.8901148877656540e-02 3.4064041460608774e-03
      -2.9478836627149219e-02 6.9263649917259321e-02
      3.6271890082203384e-02 9.2109078855901527e-02
      3.2256550523116836e-02 6.2414255977611716e-02
      5.3190046217512235e-02 7.4198257015084826e-02
      -7.1066458867105886e-02 5.9278250441270964e-03
      1.3948099615629755e-01 1.0356702321344753e-03
      -2.2676840499561399e-02 -8.6138222139078013e-02
      -7.3383726736641217e-02 -1.6747237869856194e-01
      -5.2467142212837062e-02 5.0867723510166413e-02
      5.2471037611972193e-02 -1.3123615947280015e-01
      -1.0319336553752481e-03 -5.6139124570171887e-02
      -1.3696269547114737e-01 3.1787837933747572e-02
      -9.8533052396353474e-02 -3.1835253230728611e-02
      -4.0242863392522650e-05 4.1969344357378140e-02
      1.2777392826486043e-02 -4.5646338628107082e-02
      -8.6923142746098917e-03 -7.2569495282290286e-03
      -5.6750204317800090e-02 -1.2722430702807533e-02
      2.3118449814644698e-02 9.4731225383051128e-03
      1.6898885873531132e-02 -2.7971076210151235e-03
      -4.9115450891159547e-02 -1.4499548751408046e-02
      1.9852956031500960e-02 6.8105633444156155e-02
      -3.3639420453256165e-02 9.6970763714262082e-03
      -3.3670885576770906e-02 9.4486806459729844e-03
      -1.5995443046077789e-03 2.2168330077332304e-02
      -2.0127860685288688e-02 6.0008783817219580e-02
      5.7789458137182025e-02 -5.4000112338897101e-02
      -6.1423072610893206e-02 -9.5158110800400861e-02
      -3.1685351358949856e-02 -1.0886996455374026e-02
      -2.1911487261045266e-02 -4.1734000001460603e-02
      -1.1319766825307621e-02 4.5374709837247625e-02
      1.4709530817252080e-02 1.5885120865435566e-02
      4.9304532925874712e-03 1.1382687923301929e-02
      -3.7982543884691571e-02 4.1196397104374047e-02
      3.4215511619341680e-03 -1.8039727233755312e-03
      6.1038171742699154e-02 1.6782096711501250e-02
      5.3191281487294739e-02 5.1975938382580938e-02
      2.0571577362412517e-02 3.2883616927576067e-04
      1.0038950747765654e-01 -3.6214418277219683e-02
      -8.2713979580011490e-02 9.3735246683838338e-03
      -1.3208831568634539e-02 5.1812616418544025e-02
      5.1229611255986900e-03 6.8108328211336389e-02
      3.3123781740513432e-03 1.7148777144514821e-02
      3.7009777976524376e-02 7.3024443423749270e-03
      3.0049277446005607e-02 2.6729872595149976e-02
      -1.9113129091570032e-02 -9.5948661775150535e-03
      7.8614962414205708e-02 -1.0796335478763783e-02
      -1.1626301723881073e-02 -7.3513916850761973e-02
      3.6443579190383248e-02 -5.6123514662363275e-02
      -1.8987456812747567e-02 -2.3084143606892631e-03
      -7.5378241325801079e-02 8.2650794309641548e-03
      4.3284424253012106e-02 3.6701740706546214e-02
      8.6389363026283267e-03 3.8137157090255475e-02
      -1.0476470134310134e-02 4.1186953475882901e-02
      -6.2503687478729142e-02 -7.2457867328125638e-03
      4.3762537867544464e-02 -8.3258330861830446e-02
      4.2873672825674940e-02 3.4531020198994636e-02
      4.4098800968828837e-02 2.7091150396864279e-02
      -2.9210338473764107e-02 -4.5197215462943280e-02
      -7.6644974232799007e-02 1.5117767338242839e-02
      1.7808896716798729e-02 -5.4388581191367582e-03
      2.0228129870337810e-02 -6.5256752207923027e-02
      -3.5472431479893304e-02 -4.2694566170598199e-02
      4.7473458617558160e-02 -1.7401056567521101e-02
      1.1368295250283367e-02 -4.1112294481407574e-02
      1.3821631010367107e-02 1.6880044338546452e-02
      -4.6694988302189107e-02 -3.0176322584940827e-02
      4.3194831747751926e-02 7.5656938178407976e-02
      4.6327880588961277e-02 5.7415183737827768e-04
      7.1194298945664924e-02 -1.8451260129743023e-03
      6.6050406441635484e-03 9.6432471310332318e-03
      -2.5097691058256058e-02 -1.4111290816342067e-02
      3.8951507069986256e-02 -7.2537381010590374e-02
      3.4080479804140931e-02 -5.3819469660946119e-02
      1.7305941779054430e-02 -8.9964080883199304e-03
      -8.1899792324191187e-02 6.2419109320455884e-02
      -1.3485699838227166e-01 -5.2345126024393417e-03
      -9.8447785185340503e-02 -1.4111846183628354e-01
      -1.0338160744215004e-01 1.1644912271479418e-01
      6.0513216742676755e-02 5.1803406654770019e-02
      -7.6159514842596046e-02 1.7458649841039464e-01
      -4.0257497846696702e-02 1.9279589246444448e-01
      9.4663199002602699e-02 1.5011751519677521e-01
      -1.0339778160981972e-02 1.2831240559334348e-01
      2.0185383479470714e-01 1.3561990335918947e-01
      -1.1564300478121414e-01 6.9277051927673861e-02
      1.8799793202340520e-01 4.6285848265284577e-02
      -1.1618878379068037e-01 -2.4952095348086525e-02
      -1.3031089819111133e-01 -2.0925260949208069e-01
      -2.4469261250896945e-01 8.8341549390357987e-02
      4.2026185361885599e-02 -1.9326785675087610e-01
      -3.2616040712248077e-03 -5.3474222862281512e-02
      -1.7655651046559115e-01 3.1218790820668246e-01
      -2.1433560122724710e-01 1.6741371287530196e-02
      -8.4336630369645765e-03 7.6726319380128985e-02
      1.1933607150280837e-02 -1.7835431865480489e-01
      5.2087295773591377e-02 1.0207117717555309e-02
      -1.2862292311538947e-02 -2.7184813438664735e-02
      6.7496583542539443e-02 -4.0178917043602727e-02
      -1.1214380087345625e-03 -3.6636694563846003e-03
      1.0551725828088960e-02 -5.7351995064832031e-02
      -4.1720682609948531e-02 -8.5978773279021196e-04
      -9.2374809105626510e-02 2.3053542088170093e-02
      1.0606155067252714e-01 3.0440343034540577e-02
      -5.9728027184097573e-02 5.8831830283685334e-03
      -3.7838330683264011e-02 5.7411301277893040e-02
      -1.6463757197581377e-02 -5.2439377735288582e-02
      -7.9441620659147574e-02 7.6643031953220354e-03
      5.1342960468572264e-02 1.3786142873623644e-03
      6.6836422004835378e-03 -6.6906791597220626e-03
      -1.3017762795428083e-02 1.3252606784364940e-01
      4.7355441086852058e-02 -2.3421073808157170e-02
      1.3593773806793458e-01 -2.3130393660226581e-02
      1.6007498575947944e-02 5.4882244582555056e-02
      -2.5672226994187912e-03 4.6818539329823841e-04
      -8.6198040129857711e-02 -9.6302667976937515e-03
      -1.2048410643023831e-01 -4.3372666704087154e-02
      4.3097857825582085e-02 1.9670399888611708e-03
      -3.9278508025672156e-02 -2.9212606102729730e-02
      -1.4758078233339080e-02 -1.9225048936021595e-02
      -4.6934330304067198e-02 -2.2679551622192907e-02
      6.5189641771638699e-03 5.9666958798926993e-02
      -8.1900968092071154e-03 7.3692997347259695e-03
      2.8961388374208748e-02 7.0287393161282661e-04
      5.1236493590786018e-02 3.0790978248427876e-02
      3.0747329223217591e-03 9.6158250870679016e-02
      4.3252711360837616e-02 -6.9941890308609908e-02
      3.8970853474155999e-02 -7.0542158376079966e-02
      7.8914792987384352e-02 2.3243016863830509e-02
      -1.1599036777468298e-02 1.7788465109297054e-02
      1.5622883670483770e-02 -8.0387077017056736e-03
      -1.7380491076893004e-02 -2.3125294515243000e-03
      1.8147485338131822e-03 -1.3943244299138048e-02
      7.5097727141122846e-03 -7.3472532780972197e-02
      -1.2008873652092746e-02 2.5214826426882570e-02
      -5.3053776434076275e-03 -1.3184376265314981e-02
      -4.0385292578817733e-02 2.1164371148002736e-02
      -1.6094634617051025e-02 3.3969393598132405e-02
      3.7800969764438627e-02 1.5422185196323348e-02
      -3.8929416341841300e-02 -2.2128697873889769e-02
      7.7050108178220887e-03 -1.3671293695490716e-02
      4.2811337110494570e-02 -2.4184361774185838e-02
      4.3400579032582967e-03 -1.1935731776907203e-02
      5.2055792627903139e-03 -3.8109702244912169e-02
      -4.5401360450892651e-02 -1.3568448558927877e-02
      3.0834026051852613e-02 -3.2003713059957951e-02
      -8.9411271272463483e-02 -4.6485764351507627e-02
      4.0682620332875626e-02 3.2677521596614051e-02
      -1.8189004079425846e-02 2.7335446235947344e-02
      7.3158730731034322e-02 -2.7438363355513768e-02
      -3.1352877404628401e-02 1.3076682874551130e-02
      3.5511450003612209e-03 3.5243229292857788e-02
      -9.2618163106469864e-03 -6.4079497673004998e-02
      5.7212086865437210e-02 -3.5364800700933834e-02
      -1.5259309783197467e-02 4.4032997670465750e-02
      -1.1561278371673404e-01 8.4993550525362671e-02
      -1.3298998477856858e-01 -1.2157759963249720e-01
      -1.3569118865423963e-01 -1.0852407701340219e-01
      4.8622571243156906e-03 6.9704297932276935e-02
      7.3659293176934731e-02 1.0676609921962229e-02
      -1.1473494194671967e-01 5.0458319158356300e-04
      -2.4927620481014417e-02 1.8538592684940164e-01
      4.4182932430442648e-02 6.2253094436642786e-02
      -1.5666526838992151e-01 9.7345158492133890e-02
      1.7891675665728413e-01 5.9739572113433170e-02
      -7.4018586011725285e-02 4.2391044417988015e-02
      1.8136936296959402e-01 6.9271137257423288e-02
      -8.9322830416923016e-02 -1.1627134592453352e-01
      -9.9860677471467971e-02 -9.9210248091746833e-02
      -1.8086106405217828e-01 -5.4150867284801290e-03
      6.3671073487298696e-02 -6.7485340054576723e-02
      -6.5320686794414967e-02 -4.3411573052126720e-03
      -4.0595612722466395e-02 2.0348625789735031e-01
      -2.1060710305124267e-01 3.8267723783113904e-02
      5.9127088125759681e-04 -3.1058209355476037e-02
      -1.3748055662578296e-01 4.3062499720720369e-02
      -1.2233393754100307e-01 -1.5160401178322197e-01
      -1.8472355463743731e-01 -1.8863307380570524e-01
      5.7248081456355515e-02 6.7659011684246914e-02
      1.2787645964252600e-01 6.2837957446497542e-03
      -1.1391446171521971e-01 8.8880092703844379e-02
      -1.5326455809331577e-02 2.4820190737779685e-01
      1.5972500297484170e-02 9.6726691242592255e-02
      -1.7416697118836041e-01 1.6360874924033758e-01
      1.8273547546888111e-01 9.4598669717450984e-02
      -1.2063664477433168e-01 -7.1412140172747177e-02
      1.9006503992528478e-01 1.5641445951486432e-01
      -7.1334744759474572e-02 -8.5659049152223610e-02
      -2.6403392264901463e-02 -1.7756464053714960e-01
      -3.5190997912554400e-01 -6.9710254944581928e-03
      4.3952901368575312e-02 -4.4139581099850625e-02
      2.0704945779112471e-02 4.1937521661201953e-02
      9.6985614075629049e-03 2.6448330128983061e-01
      -3.7885673086104843e-01 4.1070099443973010e-02
      5.6798877147830641e-02 1.9253052692144529e-02
      -3.3006303956300179e-02 -1.0175159927230908e-02
      -1.0783882341022073e-01 -1.6100544918239205e-02
      6.9990368796626762e-02 -2.2261122218922378e-02
      8.9520162353047875e-04 -1.0272621349953331e-02
      -1.1072501515165398e-02 5.2234744066095878e-02
      -4.1478642684857181e-02 3.8560759200822275e-02
      -2.7789764525358568e-04 5.5123544077349131e-02
      1.9520389277807540e-02 3.5463175663033107e-02
      7.6693079055102809e-02 2.1127182888252525e-02
      -1.3681400313473417e-03 4.5883788535253080e-02
      -2.3542516770782781e-02 5.9138584207461431e-02
      1.8361020123219120e-03 -3.5142892801903143e-02
      5.7178731534049787e-02 -2.3027774562789097e-02
      2.6292123400689465e-02 -9.6600387496964354e-02
      -3.2458192664728942e-02 5.7872533027549279e-02
      2.5525473959368408e-02 -4.4428940952973596e-02
      1.0186086605805869e-01 -1.9139594804480669e-02
      -5.2638248044065833e-02 -6.1531571889273606e-02
      -3.5243459612969819e-02 -7.8733672448677711e-02
      5.6766951650276627e-02 -4.6021907282028145e-02
      -5.4173173715704584e-02 6.1180090854621047e-02
      -1.8390909207349468e-01 -7.0035412056500561e-04
      -1.1064646526169414e-01 -1.5337532017969014e-02
      4.4624424761449712e-02 8.1018077126527976e-02
      -1.6233627063554995e-02 1.6528867583890661e-02
      -5.5046021934017968e-02 3.7828905242409006e-02
      1.0582407500560716e-02 5.0055562566496445e-02
      6.9676973336578671e-02 1.4317730356820796e-02
      -3.6905447066318500e-02 9.4645752153232551e-03
      1.5266442122132939e-01 1.7739272412570908e-02
      -4.0958209677406082e-03 3.2448267290159476e-02
      7.0700862442362233e-02 -5.5019307731379974e-02
      -8.6170376472328142e-02 -1.6689422251221282e-02
      -2.8656874971323076e-02 -1.0339080172219978e-02
      2.4539863845916686e-02 8.6011245075328355e-02
      -8.9906528029425198e-03 -3.5070115738401651e-02
      -6.3023677804211250e-03 1.7996728609177250e-02
      -4.4760322947694511e-02 1.4355732649418676e-01
      1.4579805715686782e-04 9.4900160497361816e-02
      4.4960446551808440e-02 -2.5200729900043333e-02
      -6.8411670344989180e-03 2.2373235452333051e-01
      -1.1939763693374032e-01 4.7689273012518482e-03
      3.4775798981964638e-02 -2.9687081203353768e-02
      -9.4169012165468101e-03 1.2770801410728957e-01
      5.7004336741370556e-03 3.1376381028728507e-02
      -3.6891039574085807e-02 8.9214092892944366e-02
      -7.0265956139784506e-03 7.1933277992220587e-02
      1.5147678804734424e-01 4.8432613726051121e-02
      -8.0973084116872984e-02 2.8553230263027508e-02
      1.3199031220106341e-01 3.3908367433354687e-02
      -3.6189860478814159e-02 4.4511029466654577e-02
      9.4096782893463821e-02 6.7317463882364301e-02
      -1.8161150742156684e-02 1.7027411146324271e-02
      -1.1683671994639935e-01 -1.9082664462102736e-01
      -6.0256030091215017e-02 5.1800650858151498e-02
      1.5932181646057107e-02 -2.5778872291796068e-01
      -4.9776315482852780e-02 -1.1331667212258789e-02
      -2.4488139638853745e-01 1.2430690043902934e-01
      -7.4825425821029093e-02 -1.5833278341576808e-02
      -5.8789379171530341e-02 -1.1731676007826873e-01
      -3.7910960611797280e-02 1.8566135572456399e-01
      6.9608911581557468e-04 -5.4324774500648432e-02
      -8.2077347443587773e-03 -5.6861326728435989e-02
      5.9864189673029006e-02 9.0113709101048739e-02
      -2.2514825902652913e-02 -3.9482009581126021e-02
      -1.9776896844182233e-02 1.2614331879747173e-01
      3.0559190806741486e-02 1.0541997259419691e-01
      1.5147502303376920e-01 3.3792197706851108e-02
      -2.1240449358328842e-01 4.7541022789001436e-02
      1.7873149263038313e-01 3.7617228947648997e-02
      -3.1694314138574840e-02 8.5020807688852937e-02
      9.6823590131501991e-02 1.4617898148977515e-01
      -2.2481475137181885e-02 1.2299277439922682e-01
      -6.8686279877209697e-02 -6.8418114787816675e-02
      -1.6419815895512219e-01 3.3631789800169696e-03
      -1.7563249541158028e-02 -1.7260323664695928e-01
      -1.2281460621448861e-01 5.0090573951913672e-02
      -1.6267945893714053e-01 2.4829342501607171e-01
      -1.7694161276570908e-01 2.3240330919111304e-02
      -1.3036173901251249e-02 2.3667606175125830e-01
      -6.0031325906330653e-02 -6.9313542458948191e-02
      -3.9904831370073890e-02 -5.5396536380447260e-02
      -1.0092773357341241e-01 6.9817609377319553e-02
      -1.1850633804761045e-01 -1.2412915823037052e-02
      3.8369364461024145e-02 -6.4699642083972081e-02
      2.3863963353978796e-02 -2.0452372122645904e-01
      1.2813524981815314e-01 -1.8828156106378308e-02
      -1.8272017347689984e-01 -6.3996817406537718e-02
      -1.3732062619510399e-01 -8.9084342617097023e-02
      1.2945849049037660e-02 -5.3305150230961239e-02
      7.9107687339528332e-02 -1.0369621684458896e-01
      -5.1140887897425963e-02 -2.2352427767909577e-01
      -2.7929907457602019e-02 -2.7622191607532515e-01
      -3.5668984082056938e-02 1.1079872340851039e-01
      1.1144181951395922e-01 -1.2108432414292826e-01
      -7.9423782351650082e-02 1.3315890828601812e-01
      1.0055282479728450e-01 1.1513471519810474e-01
      9.9326698979682909e-02 -8.8007673382729093e-02
      1.0606014346570253e-01 1.6948743368508431e-02
      -2.9751425169250681e-02 -2.4861654384003812e-02
      -6.5445003185362694e-03 2.6128813095574260e-01
      4.1486571166731552e-02 -1.8073352554511646e-02
      6.1857108638648226e-02 -1.1531002369485981e-03
      -6.1700868630422991e-02 9.9218694508646343e-02
      -6.0029752443906785e-03 -1.6509051185900271e-02
      -4.1285770784820919e-03 2.7855158671001218e-02
      1.7195097552997165e-02 -1.3711145306542837e-02
      5.7266043140960163e-02 -2.0141001282887087e-02
      -1.9085811505496550e-01 3.4846687043631094e-04
      1.7348555298487864e-01 -3.5689619280990036e-02
      2.8332623287566582e-03 3.1822413777345133e-02
      4.1867849546885744e-02 5.6432922843072379e-02
      -3.6134740403467535e-03 -7.6834785036980616e-02
      -1.4487151787176916e-01 -1.1018158430516280e-03
      4.3397400098806257e-03 -9.7273620819421897e-02
      1.8765791061550779e-02 -2.3123954880075082e-01
      -3.8741354654878664e-02 -2.2880765062382031e-02
      -1.7933690463790258e-01 1.0749247988589704e-01
      -1.3977763041555265e-02 -6.6431857552698592e-02
      6.8599055592566873e-03 7.8724007849057323e-02
      -1.6798753010073458e-01 -1.0489978154720968e-01
      -1.0545464489710184e-01 -1.1676529885870829e-01
      2.7804145033326715e-02 -3.4459481471964912e-02
      1.6584210174275336e-02 -2.3917419700616522e-02
      6.3744769111467722e-03 5.9659111425136874e-03
      -4.7950918843231570e-02 -1.0155918623143012e-01
      -5.8029568320553020e-03 5.4540869409204482e-02
      -1.0035972338018229e-01 2.7041008977949459e-02
      7.1223954939100581e-02 2.4029526130832493e-02
      3.7880889448458593e-03 5.7137550354300772e-02
      -9.5702845970631230e-03 -5.2414093527349215e-02
      6.1771284342593637e-02 -4.7683755052675511e-02
      6.4758784668883546e-02 -1.0870720214917824e-02
      4.9933706379456225e-02 7.7793325131262497e-02
      -4.2934655996800714e-02 -4.8860378093149998e-03
      3.1017001343485087e-02 7.6492261330679628e-02
      1.8489248289646303e-02 -1.4812734676692514e-02
      6.7309002250467903e-02 -2.4449130614739523e-02
      -1.1655128374685885e-02 -8.5881006571832910e-02
      4.0426282842184531e-02 5.8088937209684263e-02
      3.4921795312233108e-03 -4.6083561832756144e-02
      1.1693537228639733e-01 -1.5074768885485651e-02
      1.5093170640660800e-01 -2.3053958665498250e-02
      7.3949797094946812e-02 -1.6253731210473532e-01
      4.0544299249030517e-02 9.4954213416395691e-02
      -2.7720009978698893e-03 -1.1783170774345983e-01
      -1.1451073402820264e-01 -1.0284738359306907e-01
      -1.7104704597919559e-01 1.5593375964747420e-02
      2.3554529897672255e-01 2.5047090763750564e-02
      -1.0974912625256193e-01 -1.5810535013148427e-02
      -2.0193782779342060e-02 6.2714313946219721e-02
      -1.0863849851375241e-02 -7.0640037021332466e-02
      9.8074926626010625e-02 4.4061244700474456e-02
      1.4547351925433066e-01 2.8123975214410610e-02
      -6.9590775943898881e-03 -1.0412093830806027e-02
      6.9478475640729481e-02 4.6276750815123169e-02
      5.4881380585974610e-02 -1.2530255519879066e-01
      5.1172929570341620e-02 -1.2079589841524850e-01
      -4.1405499329977488e-02 -1.2361225140622553e-01
      -1.1328843781360434e-01 3.4205125756761261e-02
      7.3990449694239124e-02 -9.6097017667210585e-02
      1.8066031993534678e-02 5.9630829997750205e-02
      -2.7207600388121772e-01 6.1883280272194204e-02
      -9.9480695969321450e-02 7.4700323428005241e-02
      -8.5415035026593769e-02 -7.4320215998673334e-02
      2.1726740597656457e-02 -1.9370075560453737e-03
      1.0809560584769132e-01 7.1468075350882556e-03
      5.5256615413396722e-03 -4.9526263417343709e-02
      -1.0302341612487868e-01 -6.2748604462375276e-02
      6.1086725276871555e-02 -3.8487905475055671e-02
      5.1994259932323893e-02 -2.9184995778844839e-03
      7.2571952826021640e-03 -6.0743911513522666e-02
      -1.7371769603517043e-01 -6.4035129538181759e-02
      -5.4406047088650496e-02 8.8278503934748384e-02
      1.8238042696719369e-02 -5.5170318858625854e-02
      -3.0160496915536957e-02 7.1128038061462340e-02
      -5.9310608867539055e-02 9.2666317273593451e-02
      4.4107897738594755e-02 7.3871610058732023e-02
      5.6948117860195324e-02 1.7297158049577366e-01
      3.6317422688392068e-02 5.9659169166464160e-02
      6.3957364058321822e-02 -8.6010371777556355e-03
      1.4419012106610021e-01 3.9430805579338937e-02
      1.1446441152852120e-01 -1.0748400241774806e-03
      1.4841923387766572e-03 -4.7970408702076965e-02
      -4.4030624977341996e-02 -6.6021842010231604e-03
      4.8208129691113604e-03 -3.6464913393043231e-02
      -1.5762036361872830e-02 -7.8497155016952633e-02
      -3.7326703567365595e-02 3.5572761369758403e-04
      6.4624529356865787e-02 1.4216037038623446e-02
      -6.8111016265161542e-02 -8.2999585452130809e-03
      -2.3564468771366583e-03 9.5191410507439872e-03
      -1.2699174043127873e-02 -5.8287729704470506e-02
      4.3095108355320537e-02 2.7961370066749345e-02
      5.4774305535427038e-02 9.1834348694821901e-03
      6.0140268542883214e-02 1.4917624563456511e-02
      8.9501520423400059e-03 -3.4995993236013878e-03
      1.3611979758493854e-02 -1.4138750383795504e-02
      -3.2381452284571198e-02 -9.4874800899488562e-02
      3.4828986640826384e-02 -6.1627648422288767e-02
      1.4603775880663297e-02 1.4213975515805474e-01
      -2.4016913793351552e-02 -9.4025588258081813e-02
      1.0155705020402252e-04 -4.7213127387411555e-02
      -1.6673579437183830e-01 -4.2033512477665159e-02
      1.3269699701510148e-02 -7.1010683532389970e-02
      6.9870371010903834e-02 -2.3785780826697196e-02
      -3.5799153827142972e-02 -1.1832329235361196e-01
      -4.0877273946468014e-02 -1.5351378649994982e-02
      -1.6429494983301504e-01 2.7875554329241294e-02
      4.7131660154297358e-02 3.8655907965497116e-02
      -2.6571795838452209e-02 8.2338053584231248e-03
      -2.1976245644497218e-02 4.1277060839740455e-02
      3.5739544385699887e-02 -8.3917968196065618e-02
      -1.1759924371114505e-01 -9.8234134825431516e-02
      3.1752951287488541e-02 -9.7940909005042806e-03
      -1.9370478130902814e-03 -6.1155159071621626e-02
      3.8364192338806044e-02 1.6465675563506993e-01
      3.3340723093934786e-02 -3.6452335672372382e-02
      1.4584250859491371e-01 -2.1355311237713619e-04
      -3.6486887901258862e-02 1.2591914604894433e-01
      3.6707321251949108e-02 7.0012323738512974e-02
      -6.4930305735943425e-03 -3.5735352452602703e-02
      5.1876981889792631e-02 -6.3480864430602970e-03
      1.0384578044591525e-01 -3.8671507101222011e-02
      3.5200517386638992e-02 -1.4007243352829965e-01
      4.0095158912708359e-02 5.9794768632528979e-02
      -2.1784971120788230e-02 -8.7198205526631434e-02
      -8.2444372931163565e-02 -1.8226846660935030e-02
      -1.1549748805416529e-01 2.5838395477890578e-02
      1.6652785751627569e-01 4.7189285696161140e-02
      -1.0064790935667507e-01 1.5084525679764434e-02
      -3.2219163128423572e-02 7.2145474404130036e-02
      2.2807524651686124e-02 -4.8472371935324249e-02
      6.8392188210832747e-02 3.0881007056837925e-02
      1.4560010533702766e-01 -2.9843590417408901e-03
      -3.7988619293794865e-02 3.9441553191702630e-02
      4.4049180420038907e-02 4.1213255232856259e-02
      5.1969766061091043e-02 -7.0590393405027180e-02
      3.0100027451232553e-02 -5.7984265800889834e-02
      -8.4099941044624718e-02 -6.8869416526259844e-02
      -3.1116464046335363e-03 1.1851041475919241e-01
      -5.3442828967517182e-02 -6.6600913820413263e-02
      -3.8507287539319625e-02 -3.0614443708850442e-02
      3.8449242568740098e-02 -1.4382443862566527e-02
      7.0246468401367976e-03 -9.7397933807538792e-02
      -1.6278292787860523e-02 -6.1277487977805618e-03
      -4.3545519619210091e-02 -1.0770393906442044e-01
      -3.9059489649903921e-03 2.7445804573232618e-02
      -1.0133232846567508e-01 4.6523936773115492e-03
      7.7523082925731124e-02 1.2384518966520867e-02
      -3.6942520152840219e-02 3.0274034648596813e-03
      -2.3580738300422455e-03 4.8919454809257502e-02
      4.8085388791446207e-02 -1.0142474088690726e-01
      4.6400174907531108e-02 -6.0850972200169433e-02
      1.2188068466747605e-01 -2.1760365607376680e-02
      3.6772671572924222e-02 4.4391753106939782e-02
      1.4151514187532462e-02 6.3807191987268530e-02
      -1.0288156695363437e-03 -8.2690528337702063e-03
      4.5780064047582322e-02 -7.8277498684676330e-02
      1.3702402140276260e-02 -3.0871725002414287e-02
      4.0995842592343450e-02 9.6440311821926791e-02
      3.9755671361691433e-02 -1.0033172302812331e-01
      2.0551272468774993e-02 5.6992091656727757e-02
      -1.6614529853892915e-01 4.1612678944312864e-02
      1.8183230085387463e-02 3.8228136556903561e-02
      -3.3087987451303147e-02 -1.8950066520453359e-02
      1.7159227620550468e-02 -7.1388486997845460e-02
      1.8304748603627820e-02 -6.6546255616135239e-02
      -3.6719001432846995e-02 -2.1954931252435236e-02
      -3.3854077601346469e-02 -3.6706435297915070e-02
      -8.8761958813385722e-02 -2.1258523999669949e-02
      3.1723313886754076e-02 -8.3709826503495760e-02
      -5.6216717043006938e-02 -6.8458894130604131e-02
      -1.1459267836840668e-01 -8.0014253088515327e-02
      -2.6709929339665095e-02 4.3598581680747164e-02
      8.8133200868001318e-02 -4.6450404609727131e-02
      -1.3412034788185678e-02 1.1908005424386911e-01
      4.9450878672921798e-02 2.0921475708782201e-02
      1.2927911949500914e-01 -1.0833800417011034e-01
      1.1010183437315485e-01 1.2652528949209743e-01
      1.4322825276470420e-02 7.5042126823577596e-02
      -1.1942027105319539e-01 4.3659062803459110e-02
      -1.2927974219796803e-01 -8.9977980236462293e-02
      4.8109294486213046e-02 -1.6457183896596745e-02
      3.1735826318131218e-02 4.9861915075019018e-02
      1.4320538397199935e-02 -7.5974970383193749e-04
      -3.6171508007100825e-02 -7.2688841034149770e-02
      1.9561944956568468e-02 4.0199391881799466e-03
      -2.5827099988183805e-02 9.7818931888370569e-03
      -5.2130101534282505e-02 6.0973483177901655e-03
      1.8465708775011622e-02 2.6692780254281425e-02
      7.4839707690382094e-03 1.4702782873861726e-03
      4.8251133117282158e-02 -4.5956568943569781e-02
      3.2611381446435349e-02 -3.0975233888406395e-02
      -1.5759585088096665e-02 2.9840955442886469e-02
      1.8485093645888434e-02 4.2465053324681735e-02
      -5.7214650014288137e-04 -3.2180733800172667e-02
      -5.1538856531662689e-03 2.5382238987196437e-02
      -6.2123652076814369e-02 4.8353381512275112e-03
      -6.3442372911754648e-03 1.1382241549580967e-03
      2.2284667653616589e-02 2.0629662015021846e-01
      -2.3423418221353667e-03 -1.1042266609655978e-01
      1.1023510929414731e-02 7.6481008853827056e-04
      -9.4471864574780323e-02 1.5442870598948969e-02
      -2.6544995633954712e-03 -7.6246183109162924e-03
      -5.7507223565488277e-02 -3.2297577676055990e-02
      -3.6656380348744633e-02 -2.0244058793523451e-01
      -5.1647221854364701e-03 -2.2451797843013924e-03
      -1.8517116129792185e-01 -2.1964894720573117e-02
      4.0804111096712795e-02 -9.4263528409329316e-03
      -8.0612351367276042e-02 -1.2109958493935482e-02
      1.2753612832256437e-02 -5.2326079211037657e-02
      2.3158129722410326e-02 -1.3357864428769295e-01
      -5.6199285273650160e-02 -1.1631303277025583e-01
      3.3767819026226213e-02 6.2418811041500384e-02
      5.3695650240568021e-02 -2.6847449107517685e-02
      2.4062995640477574e-02 1.3722175053679969e-01
      3.9342723460374929e-02 -1.3502266434766695e-02
      1.4545705825562155e-01 -1.0281848144862171e-01
      7.8320857595928717e-02 1.6226794806904182e-02
      -4.8033430655931693e-02 8.1838323235907645e-02
      6.8947598962000853e-02 -5.3841110883405492e-02
      2.3188960052494993e-02 3.1297822267239851e-02
      -7.4218773378616085e-02 5.8526088494628967e-02
      1.1193231344093852e-02 3.4914817416395856e-02
      -8.2849559176864068e-02 -3.9732677308425265e-02
      -1.7289407671302055e-02 -5.9479813486695308e-02
      1.3557006031344037e-02 -6.2423856884108495e-02
      -2.5513190796679023e-02 -2.8071937263358493e-02
      -4.0319313046260241e-02 -5.5449258032808431e-02
      -2.1632957264901023e-02 -4.9718895426657257e-02
      3.1664902361983160e-02 1.7606129518613626e-02
      -9.9501140763304075e-02 -1.1473557559999603e-01
      -1.0320964213493007e-01 -7.1051923355169189e-02
      -4.9184741105990699e-02 -1.9690631683612434e-02
      1.0475118971913454e-01 -3.5676615139921049e-02
      5.9588247286868406e-03 4.5422636899407801e-02
      1.7653073123185092e-02 8.4824302815222144e-03
      2.8306228262369372e-02 -8.1709106243456703e-02
      1.2860850675546809e-01 1.0583234601812196e-01
      -1.8543858103670624e-02 1.9866851456629971e-02
      9.5410107186721608e-03 -1.5997713319076099e-02
      2.2083467384580505e-02 2.2720509680869864e-02
      -2.7203248766470300e-02 2.7022846970346574e-02
      -5.1518790363539679e-02 -7.0448106561796847e-03
      -6.5333172859694158e-02 -3.1478048966593897e-02
      -1.6540131338867066e-02 -3.4927620193848526e-03
      5.4596253100257570e-02 -2.6391334941859534e-02
      1.9236105916239421e-02 -2.6688662443842940e-02
      -6.0806057349415625e-04 -2.3476569464791357e-02
      -7.8096017712604354e-02 -1.7999107339398076e-02
      3.3498327359786188e-02 4.4755504369926140e-02
      1.5717810902508202e-02 -5.3792894688364581e-02
      -2.3469933235190928e-02 -5.1561826233657473e-02
      5.6623995702308805e-02 1.7200691039994116e-02
      5.6598111894661858e-02 2.2745614591766065e-03
      -1.5936047517337786e-02 5.6118931567673655e-02
      -3.6910885155318172e-02 4.4157346171470109e-02
      3.8112160265890260e-02 -4.9189741692014545e-02
      1.5627085522056751e-02 2.6561242130517908e-02
      6.8831780097444284e-02 6.7064099468811394e-02
      3.5884044211475373e-03 -5.1849385641526066e-02
      -2.8545596528443910e-02 -2.1471096843439764e-02
      7.9334830000948028e-02 -4.8106442668220239e-03
      1.2450250251535906e-01 -2.7478217812273713e-02
      4.1801470938067305e-02 1.7105361697754666e-02
      3.6652083181676905e-02 -1.1709442509431227e-01
      -1.0343877381297013e-01 -1.3541058193830988e-01
      -1.1498146414404932e-01 2.3112640291864467e-02
      1.0437814336217270e-01 1.0084337177914859e-02
      -1.2408758758831728e-01 -5.6263149497983150e-03
      -1.4278966952964848e-02 -8.7481983964103078e-03
      -1.2837582742511267e-01 -6.3626844822478199e-02
      1.8326405613867426e-02 6.7914476925363867e-03
      1.7607537736927480e-02 -1.6791442807077825e-02
      5.9798984848642940e-02 4.5965524478809514e-02
      2.2430103897602062e-02 4.0519520552147116e-02
      3.7189193103821849e-02 -8.3187806685969812e-02
      5.6116493498918077e-02 -1.3906621712271622e-01
      7.5534484352104025e-02 3.8303025526311582e-02
      2.3528800266214473e-02 7.4019202386580024e-02
      -2.3406630070250514e-04 -1.5942165679114037e-02
      3.3675878169518454e-02 -2.4495852515911570e-03
      7.7189465225209808e-02 -2.1924646957987858e-02
      3.0132677776482191e-02 -1.1613372280880968e-01
      2.2101004494503997e-02 7.9309521069206523e-02
      -1.8554575151997418e-02 -9.8442142613504244e-02
      -6.2635543823776341e-02 -5.1524127192917490e-02
      -1.1480002141015905e-01 1.6161372735223417e-02
      1.3329942533603592e-01 2.7459290474313430e-02
      -9.3700658460737635e-02 -2.5791217482500168e-03
      -1.9776827583015497e-02 5.8497819450192001e-02
      -1.0527290753513600e-02 -5.7537572350593751e-02
      5.6490285453736210e-02 2.0906800733767245e-02
      1.2052135162904386e-01 -1.5030728707428579e-02
      -3.7766816236731698e-02 2.2895040599605340e-02
      3.4202800454993930e-02 3.1425340861999412e-02
      3.1415593401724257e-02 -5.8883921092627814e-02
      5.2661498166063150e-02 -8.9472392988112812e-02
      -8.9860557190446416e-02 -5.2074584509660043e-02
      2.4044049025747295e-02 4.1847267056877267e-02
      3.0375287406655849e-02 1.5267011316336337e-01
      4.1584216902999481e-02 1.0342641003303701e-02
      4.0087857874764821e-02 -1.2120435087265709e-02
      2.4566603711704389e-02 3.7465903914702760e-02
      3.4117876829345431e-02 -1.4863787730858282e-02
      -1.8907232838435411e-03 -3.6851636905497663e-02
      -4.3364524913890867e-02 -5.8405639390750698e-02
      -3.4588025293654061e-02 6.5586185316711407e-03
      -9.0171124634142952e-02 2.1847175659597248e-02
      1.1636348422409097e-01 -8.4347706900617745e-03
      -1.7355943782718944e-02 3.4614764156283451e-02
      -9.5316192652535839e-04 -6.2650680731860713e-03
      -1.1924950301680132e-02 -8.6674214352979784e-02
      -3.0756718812652812e-02 -7.9491828949347903e-03
      4.6533309802692296e-02 -2.7084034434217603e-02
      6.2690975084972331e-02 -1.4233794352779605e-01
      -7.3455449384360397e-02 -5.5978390666893911e-02
      -8.9220414945996154e-02 6.4814989959009042e-02
      3.6000994928878045e-02 -2.2529495739628584e-02
      -6.5677069381833778e-02 -1.4220344131070584e-02
      -5.5501619800012959e-03 1.7450355749742205e-01
      6.1482919498488511e-02 -2.3251069185147622e-02
      1.2596835491565822e-01 -3.3106259757134174e-02
      3.6669719181169243e-02 -1.3840242101868041e-02
      -2.5296359180180434e-02 1.8106352046102139e-02
      -1.0701352525107068e-02 3.2043846072570902e-02
      3.2624917027566563e-02 1.8949088004230309e-03
      1.6517046897975434e-02 9.7587157442820271e-04
      -1.0198240087103175e-01 2.7862462872996395e-02
      7.7676417136608861e-02 -8.9839863515491175e-04
      -2.0238272433268496e-02 -2.3682771078261957e-03
      6.3695732779304987e-02 9.7666076112893727e-02
      1.2356741547416097e-01 3.8490598112289248e-02
      8.0441168305560480e-03 1.8245908181357295e-02
      -6.4505078487313044e-02 -5.9218231223278350e-02
      4.1845949422328776e-02 -1.7626859084655752e-01
      5.0291853959935646e-03 2.4395231517229651e-02
      -1.7199167452429157e-01 1.3193395951986694e-01
      -1.0616487716995393e-01 -1.5432662951427645e-01
      3.8360926621081953e-02 -8.1215787221602484e-02
      2.1384133096937947e-02 1.2705208307143989e-01
      -4.4698742706528058e-02 2.0623196051301255e-02
      -8.0034540772702764e-02 1.5895649401509195e-03
      -4.7810458325069968e-03 1.1429931160094238e-01
      -1.2957786467410028e-03 1.2226664670338595e-02
      -4.3818249854512936e-02 7.9239190762236067e-02
      -1.1443588557454398e-02 3.1247667974438124e-02
      1.4022356573490716e-01 3.6701547278985648e-02
      -6.8539871357192084e-02 2.0978845388178427e-03
      1.6290312078699823e-01 2.8759137691186657e-02
      -4.4006425950556642e-03 6.9957568098365855e-02
      5.7362112431172452e-02 7.4501546560372424e-03
      -9.5802411311410013e-02 -5.1773360216065399e-02
      -9.1117970199418641e-02 6.4732950857232345e-04
      -9.6346397977739497e-03 6.8035294627857758e-03
      3.7618649858996697e-02 -1.2790171338419490e-01
      -1.0748961843676637e-01 -7.0878417418261813e-02
      -1.5360157213791614e-01 1.7632398078654504e-01
      -1.9517966539240744e-02 5.5622933490403037e-02
      3.7681784911948180e-02 8.2869363721799413e-02
      4.8742448966838164e-03 8.1555473652218533e-02
      9.9489864468838951e-02 -8.2406535413849288e-03
      1.1881613390707849e-01 -3.7399896132050532e-02
      6.0123686509404979e-02 -4.9501324224022751e-02
      8.4195677005269864e-02 -2.1564408798752738e-02
      2.2414496487425641e-02 -7.6937810775298640e-02
      -9.8688037527803210e-02 -8.0696031353734751e-02
      -1.3470689517885268e-01 2.5468416707018798e-02
      8.0323542136134657e-02 4.4423656626796315e-02
      -3.8946085401754690e-02 -9.9091184310149058e-03
      -3.0362770069481449e-02 5.0074546163059383e-02
      4.3792538336377522e-03 -2.8945609959468824e-02
      4.5362613182072499e-02 -3.0140923241453014e-02
      2.2955908051423390e-02 5.7517318538196629e-03
      7.6451821763970113e-02 -4.2330792458840256e-02
      5.2170273278217619e-02 -1.0216182857370407e-01
      2.0027644744727353e-02 -9.1339509266777641e-02
      -2.6716195756985625e-02 4.1617185088887058e-02
      7.1384259055943866e-02 -5.0198294146588919e-02
      -6.9193748231298771e-02 1.2781072920025173e-02
      -7.7067540219218746e-03 8.4992217468443140e-02
      1.4362372794494994e-02 -2.6818217799003619e-02
      -8.8327831137286594e-02 -6.5544497641284949e-02
      -2.9341804734129208e-02 3.0633705163704502e-02
      1.7095562329317567e-03 9.1359476280967276e-03
      -1.8283445631199022e-02 3.3281898496917227e-02
      6.1344257652241347e-03 4.8253719963654636e-02
      -9.2674554688058196e-03 1.5337089035360334e-02
      -8.8457165850167913e-02 6.4682101483200430e-02
      5.4240485392609748e-02 4.1345287963483407e-03
      -3.7933951323258483e-02 -2.9518235694831956e-02
      9.2862343714672432e-02 1.1198444505304007e-01
      -4.2037538863236461e-02 -4.5387219243840397e-03
      -3.2324857545825418e-02 -5.4887982033665642e-02
      -9.6946738352880979e-02 -3.6356923587109466e-03
      2.9890140484293580e-02 -4.7811823828434040e-02
      -1.3438979727316055e-02 2.3508350628810581e-02
      -1.1652618928133438e-02 1.1124658021217357e-01
      -1.6170665498763459e-01 3.1548249080995343e-02
      -8.6952556765023989e-02 2.9431825417950183e-02
      6.0116171524021787e-02 -6.8597765200813343e-02
      -4.9176543936236272e-03 7.6958594940800845e-02
      -6.0986595837410736e-02 3.0721532697049910e-02
      -4.5805705039585559e-02 2.7659708567958109e-03
      -1.1907474869201838e-01 -1.8235690950184017e-02
      3.0411547997468264e-03 -2.3533203222365014e-02
      2.5514846503157343e-02 2.4195067381175654e-02
      -9.2706493195954427e-03 -4.3525371059044339e-02
      3.2389682669799524e-02 -9.0488412127006247e-03
      -5.7455037912455320e-02 -2.4693737973761405e-02
      5.1787678593583804e-03 -5.8180223263514713e-02
      2.7817029390389925e-02 -5.9885479882800519e-03
      -2.0644630684929333e-02 -1.0687430510158986e-01
      -2.1483500793413483e-02 8.3501997107290893e-02
      4.3545857023238370e-02 5.9261120575073836e-02
      -1.3290668321980536e-02 5.2396388981686498e-02
      -3.3380269557498975e-02 4.5959231048015546e-03
      1.7197627497990808e-02 4.6879910045915262e-02
      2.2704026216212786e-02 6.2773099355647732e-02
      -7.8714321532496103e-03 -3.5080151102206789e-02
      -1.9557992046368617e-02 1.0704260106027141e-01
      -4.9436667719966930e-02 7.9322559155604617e-03
      -1.8071399368566377e-01 5.6347424872444617e-03
      -3.7097986776030566e-02 1.4027713711454040e-01
      -8.9350548393781152e-03 -2.1534276534673741e-02
      -6.3550547421139317e-02 5.4074694788033735e-02
      2.0081220566048542e-02 5.6353665703010418e-02
      7.6302079933521838e-02 3.8053636656342510e-02
      -5.8427277643243784e-02 -4.1403133409881323e-03
      1.8360298490097146e-01 3.4184947114178695e-02
      1.7513837922209835e-03 3.5076754821625110e-02
      8.2220703492211500e-02 1.5468035833909002e-02
      -8.3158331620771325e-02 -9.4029030000150025e-03
      -1.3557497564329449e-01 1.7707549119643239e-02
      -2.7276242324392026e-02 -2.5873401735820954e-02
      2.6094147337471792e-02 -1.0030046819496187e-01
      -1.3004695939663663e-01 -4.6526999072257214e-03
      -1.3090097618910596e-01 2.1090341486953415e-01
      -3.3113018092458667e-02 6.0625913829312691e-02
      -2.6053032487094934e-02 2.7340684664151370e-02
      2.5039261746786473e-02 -3.2300347642360186e-02
      2.0467011814789271e-02 -2.6222629845822319e-02
      -1.8869933774955916e-01 -7.4088439338096695e-02
      4.0268336471310930e-02 -1.2890715102223026e-02
      5.3564134788083124e-03 1.4788040668261190e-02
      -4.1395469847876405e-02 6.1806941461946914e-03
      -4.2773559631434768e-02 1.5119186439014434e-02
      -6.2061139187754083e-03 2.8503881088724450e-02
      -1.6193995845200489e-02 7.6060771414936626e-02
      1.4857330618037189e-02 1.4072210098410346e-02
      -6.7184757978764650e-02 -7.2778093293194360e-02
      1.2332505066349046e-01 3.1607274506680091e-02
      -1.4113011528317507e-01 -8.0893828178161986e-02
      -2.7854179932014247e-02 -4.1331726975915382e-02
      -5.7381636428335020e-02 -1.6767953974403797e-03
      6.9409900195272933e-02 2.4833527316355120e-02
      -1.3928923738940639e-02 -3.6406732545747923e-02
      6.3875150198736852e-02 8.1049978490045152e-02
      -9.1706697933365611e-02 1.1414272822581353e-01
      -6.6889186141638928e-03 1.8122694046801746e-01
      -3.0398291218171219e-03 -1.1070337831095371e-01
      2.1430689512264772e-02 -1.8309228346178177e-02
      1.0904442578365699e-01 -4.8037578718337436e-02
      6.8498582187323589e-03 -1.5700358106452800e-01
      5.3419275699528902e-02 -3.0509161271232241e-03
      -8.3141191240273162e-03 -1.7428158711996936e-01
      -7.7575306699802962e-02 -4.4054736637239959e-02
      -1.9704868982731305e-01 3.0692332101507288e-02
      1.1665507652770601e-01 5.1395165964379139e-02
      -1.2927027348042680e-01 3.2215915667777053e-03
      -3.3497235936962473e-02 5.2745558734746956e-02
      -2.1443378911562200e-02 -1.0913542380384474e-01
      7.3784892821260772e-02 -2.7454119435393300e-02
      1.1498499215129603e-01 -1.3562116221894214e-02
      2.7652632647377558e-02 2.5409016242575716e-02
      6.1554218638144233e-02 1.2592954094207823e-01
      5.8255391563012168e-02 -7.3226381529361201e-02
      1.2316426985964735e-01 -1.7171534669859040e-01
      1.9084342829567027e-02 -6.6133265601260260e-02
      -1.5155471482409236e-02 3.5279946510502307e-02
      8.6506076367538175e-03 -7.9208589312861413e-02
      5.7620647357567362e-02 -1.7071424612736592e-02
      -1.6948565662128007e-01 -2.8814484827401825e-02
      8.9917675907378425e-02 -3.7167546774534363e-02
      3.1099094148744739e-02 -7.6754026474654142e-03
      -3.0948437827995733e-02 -2.7996375638244531e-02
      1.9002190881894240e-02 4.3676405195854751e-02
      -8.1483762378189745e-02 2.6494680183589091e-02
      -6.8200878622075703e-02 1.9429898779808497e-02
      -3.2272916655096739e-02 2.2705492793027613e-02
      -2.4936620574371016e-02 -1.0023652350118487e-01
      -7.5423399367195399e-03 3.3748724103752771e-02
      -7.5071645999849140e-02 -5.8681847420847907e-02
      3.2093124296024311e-03 1.5877259071705022e-02
      -8.5787898082538352e-02 -7.7076525799480461e-02
      1.2651241233894611e-02 1.1938934345003074e-01
      4.9238260690485369e-02 4.3689952428682496e-02
      1.4020679156131494e-01 6.2127501312493158e-02
      -8.3270311073249947e-02 6.9693215898688959e-02
      -8.1433080841658186e-03 2.2923188769023158e-02
      -4.6365410280257757e-02 5.6096131776631739e-02
      -1.3894510930614373e-01 -5.8651982576309734e-02
      -1.8233344667273782e-01 -3.2482930384036934e-02
      -1.0253302470743046e-02 5.3524339612793202e-02
      9.1560323852853346e-03 -5.8649023400371376e-02
      -5.9985598762187613e-02 -3.6801715168418769e-03
      -1.0138884375257269e-02 3.6322615498526487e-02
      -2.3731399492482239e-02 1.7732411516321749e-02
      -7.7320800863957984e-02 2.7703805673033675e-02
      1.7153106466491461e-01 2.0717148455721267e-02
      -2.0321730168570105e-02 7.5196478374862305e-02
      5.4635435549222143e-02 -2.0722342771207884e-02
      -1.5054445401875524e-01 -8.4079242345768967e-02
      -2.2743045860999237e-02 -3.5998617406827818e-02
      -2.1859102984307072e-02 3.1259851181680648e-02
      2.4121208606706846e-02 1.0391641482469446e-02
      -6.3365654805578320e-02 1.0206677393847919e-02
      -1.3221207335202314e-02 1.4516133979076731e-01
      -5.1358579758375503e-03 1.3102553174895115e-01
      -9.2523658654722465e-02 9.9298285215640894e-02
      4.0070256543083875e-02 -1.2383788852300320e-02
      -8.0382362101916009e-03 3.4644240351599118e-02
      -3.5812680123126345e-01 1.2839728565966666e-02
      -7.0240726080438159e-02 7.0128973182149376e-02
      -3.6743988189477300e-02 -4.2833798524491928e-02
      1.6868550773797196e-02 -2.4671126928593273e-02
      8.5390099497294342e-02 4.7194220220200291e-03
      -1.8256589789800843e-02 -3.0910889534688780e-02
      -1.9499769429581235e-01 -1.4449474502793186e-02
      1.1530300393319580e-01 -2.6019966866715333e-02
      1.2174590912657502e-02 -3.8980464976460481e-02
      6.4732931107781028e-02 3.2283634110221997e-02
      -1.9443929151206718e-01 -1.1715020517222048e-01
      -1.0048186085802603e-01 5.6410010989439124e-02
      2.3504273585851837e-03 -5.7434099844575440e-02
      -1.7283448517974340e-02 7.8013460695146961e-02
      -7.1893270259081626e-02 9.3072257546417042e-02
      5.7220599187768735e-02 1.5382877820530577e-01
      -3.4696095408662760e-02 2.0252850622156099e-01
      2.6475930992687857e-02 3.2254438613594547e-02
      -2.7486254294034007e-02 -1.1999833902472905e-01
      -2.1231129004995731e-02 8.8905530612793900e-04
      4.7069991560344318e-03 -3.6684228463721998e-02
      1.3897879005080301e-02 -2.4073889025180716e-02
      7.3931773465244155e-02 7.0059733340936334e-03
      -6.9987365286832345e-03 -3.1766569437640577e-03
      -6.6131980921769348e-02 -3.1104813872691078e-02
      -5.8394905913524253e-02 6.8477143916122599e-02
      1.1973670113329422e-01 3.3429978801248462e-02
      -9.1105388646905427e-02 3.6126063041633655e-02
      -3.1096718906082600e-02 2.1399976607045033e-02
      -7.7236639101309221e-02 -5.8484122808415216e-02
      6.2120400918214396e-03 2.6478248948104268e-02
      -3.7155296785394983e-02 -5.2463749805402075e-02
      4.9606596909023616e-02 4.4258032046131796e-02
      2.3638767659658506e-02 8.7517438104866965e-02
      7.0538760553017138e-02 -5.2876347929114713e-02
      7.9265285101366059e-02 -6.6656603051379618e-02
      3.8424537532513375e-02 -1.6942851577849537e-02
      -5.7660938633129932e-02 9.7396372213917295e-02
      9.2009207450330699e-02 -1.2415853938449399e-01
      2.9096177325345460e-02 7.8661433752125309e-02
      -1.1278556271722663e-01 4.7463585655640489e-02
      -3.7496172293004296e-02 -4.0120548071423241e-02
      -5.2899345568379795e-02 -6.9168475816838187e-02
      7.6738041011315374e-03 -6.7539431801662733e-02
      1.4208569124610330e-02 -6.1098651125558755e-02
      -1.1330238650870465e-01 -2.9780441960412265e-02
      4.4611895520676903e-02 -3.6710113008343079e-02
      -5.3699375696489964e-02 -4.1783567385466694e-02
      3.1547691219335601e-02 -1.9782401122873786e-02
      -4.9647050333503757e-02 -6.3991163953757965e-02
      -9.0200422117140910e-02 -9.4248046301959820e-02
      1.0990326895230383e-02 4.8529131331162552e-02
      1.3742360239943022e-01 -1.6619911781410354e-02
      -4.0605329877272649e-03 1.4454692581053724e-01
      3.9110658621965499e-02 1.8192310559298382e-02
      1.7853626397661940e-01 -2.8555167309101175e-02
      1.4203164530732942e-01 1.2311916357225804e-01
      1.8961585383917373e-02 -1.0326350451092171e-01
      3.9131458122666767e-02 2.1206052406726128e-01
      -7.4093822004909105e-02 4.8204788580417428e-02
      -7.6011770947115781e-02 8.1121445210589893e-02
      -4.8203515121281418e-02 1.6197535968439375e-01
      -5.0870807960342754e-02 -2.1876621582959960e-02
      2.5706535617505182e-02 8.7452413557123992e-02
      4.3705407949327646e-02 -7.1054622528002570e-02
      1.7313673621385731e-01 -2.9557440360139371e-02
      -1.3000422495469657e-01 -8.4053592205084307e-02
      1.2596792510801791e-01 -3.2395009613612864e-02
      5.3194830782929449e-02 6.4212399129143130e-02
      -6.6320094982629349e-02 2.3011120939891928e-02
      -7.0383582315444518e-02 4.2953485940051044e-02
      -1.4671420551784134e-01 -6.4062623524609758e-02
      1.0624776173711210e-01 -3.0980002789928060e-02
      -1.0297242002414575e-02 -2.0618231317995564e-01
      -1.0521285658845292e-01 1.0409717741302468e-02
      -1.9824860872164141e-01 4.1261410412962399e-02
      8.2387831253731086e-02 4.2136918560974811e-02
      -2.3015301736770463e-02 -2.1513893393911989e-02
      5.0945113638123499e-02 -2.2680989577674952e-02
      -1.0272029342032014e-01 4.3130689186468917e-02
      -1.5632973497404012e-01 5.7049584928596353e-02
      5.3988416613616814e-02 3.9542355544267993e-02
      -5.4006698125595727e-02 -3.1306996195674855e-02
      4.1036860609066647e-03 7.6530088503357196e-03
      1.9256077560428027e-02 -7.9394580052920188e-02
      5.4399137625262599e-02 -2.6078724235550216e-02
      -5.5957115462040387e-02 -4.8210917556244383e-02
      -2.0185778996984545e-02 -2.3133109846294481e-02
      3.7238224991355789e-02 -8.3129413167780150e-02
      -1.6696280146408993e-01 -2.5359845103000992e-02
      -5.8557535106676696e-02 -1.7352383005784292e-02
      -7.5947661758893822e-02 2.0460709806006859e-02
      7.6615310501378958e-02 5.8199526590999098e-02
      -2.2792951709727029e-02 6.9595989302357303e-02
      1.0940075798093652e-03 3.3103497399519628e-02
      4.8588007908563664e-02 -2.3757262274475686e-02
      7.3725449858133410e-02 1.8653738461556912e-01
      -6.8642839357693247e-02 2.5757357326985181e-01
      6.6692425814182096e-02 -5.0410736153245657e-02
      -2.4023447026048857e-02 2.1638562642401091e-02
      -6.8923154197440786e-02 8.4743586178052221e-02
      -1.4851542380953611e-01 -6.6757865796076898e-02
      1.8261866028773735e-03 -3.4568183677673607e-02
      -1.2073454148452392e-02 -2.1734004928365180e-01
      8.1300664701978373e-02 -2.5842310956583386e-02
      -2.4300882519884681e-01 -8.0157508357946244e-02
      -3.9357513292054641e-02 -8.2864220051239099e-02
      -4.4985624867913236e-02 -9.5328167987810034e-02
      6.4859021681962559e-02 -1.6653549002519506e-02
      -5.6911947599702140e-02 -2.6395177122478469e-01
      -1.5069383766834976e-02 -2.6764928872900007e-01
      2.3907962665919116e-02 1.6162491845422441e-02
      9.2225708842026452e-02 -1.0319971421704133e-01
      -4.6087572813466732e-03 2.7463309886226996e-02
      8.1378154094160285e-02 6.3615519927374423e-02
      7.8932674140173964e-02 -9.9304096168304615e-02
      9.2611998266668480e-02 3.1358534225642165e-02
      -4.7201596479400608e-02 4.4224864227086137e-02
      3.6323094305989866e-02 2.0441691493390951e-02
      1.7122540387037211e-01 5.9057474753291588e-02
      7.7510298025349436e-02 9.2248978763267042e-02
      -1.0294193173899019e-01 -7.9411967402512815e-03
      -6.7854158565796061e-02 -7.4952416460918450e-02
      6.2808007863232318e-02 -6.2858063183356391e-02
      8.6727682029837480e-02 -1.0208510281396191e-01
      -9.2774885719895728e-02 -7.1224133161176914e-02
      -1.8095687468943516e-03 -8.1968258016025752e-02
      -3.5855432485231750e-02 -8.7814282243893760e-02
      7.4608406978795588e-02 -5.9417960380079224e-02
      -1.1675802298128871e-01 -8.6738788060536892e-02
      5.9581596424500359e-02 -2.3367003848836509e-02
      -1.4286334372802083e-03 7.5183911314323393e-02
      1.2025214898860551e-01 -8.6566914689929650e-02
      -4.7608552125990064e-02 -6.8457907999091433e-02
      3.4027396500700760e-02 5.3652731274845510e-02
      -1.3534507592560030e-05 -1.1627573818355465e-01
      1.5552983889742961e-01 -1.1173640504968993e-01
      2.0939843429141919e-01 4.3557846578351524e-02
      -1.3737969462635259e-02 8.1888583235942225e-02
      1.4373576310460363e-02 -2.3151464268357992e-02
      1.2073803628756441e-01 -2.4563508848138300e-02
      2.1706372279119801e-01 -7.1013137785345695e-02
      -1.6401272774606589e-02 1.9675850471371925e-01
      -8.3815078043600319e-02 -2.2247686385546486e-02
      -2.2498862208077591e-02 4.6312734338690958e-02
      -3.6449295747119068e-02 -6.6310812414606454e-03
      1.9795839449812582e-02 3.1241201397459700e-02
      1.8766944802338790e-02 6.1384514237607297e-04
      -3.1331081968982911e-02 6.8487020762501349e-02
      1.2981690719416472e-01 -7.7449636247064624e-03
      9.6206947339205859e-02 1.8733685130684158e-02
      1.3174271134118165e-01 -9.2883322320855652e-02
      -6.2947364606864190e-02 -2.2994651841651281e-02
      6.4971402541318488e-02 -1.0328952102563550e-01
      1.9759804100461065e-01 -3.5562673243097052e-02
      -6.6669843010611546e-02 1.1213801148316882e-02
      -6.9897577495971100e-02 -1.6946985036269041e-01
      5.7660936872761311e-02 1.2328582811887968e-02
      2.4783070825242063e-02 1.9655126848133422e-01
      9.5918560267753104e-03 -1.4283417040056802e-03
      1.6387958185589677e-01 1.0176668196839404e-02
      6.7552807039007373e-02 -5.2745210222350909e-02
      -5.7143082566888631e-02 6.9472861202848971e-02
      -5.6841649896669795e-02 -1.2335808781658086e-02
      1.8982746805975705e-02 3.2832706673599117e-02
      3.4390106933313597e-02 -3.6654202678903916e-02
      -7.6094806053423086e-02 -1.1040712558709431e-02
      5.2615449303053285e-02 -5.8805662332247925e-02
      8.3569410683449630e-03 8.7180746450833180e-02
      6.2089601446640594e-02 -4.6920377945999424e-02
      8.1029859474327573e-02 5.5011858397375664e-03
      1.0424332960960248e-03 -1.5912705266775179e-01
      -7.9000697527594511e-03 -3.1276761038799283e-02
      2.7501138788188339e-02 -1.7641187947286696e-01
      -1.1594244775465102e-03 1.3826544553188470e-02
      -1.2561406065057756e-01 -5.9771369471812693e-03
      -3.4408546484497114e-02 -4.7822466512812425e-02
      -1.1310262104835377e-01 6.3584073327308550e-03
      3.7720547135789588e-02 1.4579052439611812e-01
      1.5807689050280888e-01 -1.5030960490245805e-02
      8.4667866933537839e-02 -6.6440490467469707e-02
      2.5757307001941617e-02 -4.4803861729586884e-02
      -1.3966609701084771e-02 -1.5140580430958055e-02
      2.1920230100142446e-03 1.2729662626003726e-02
      -1.4457199123020115e-02 -1.1535844242845910e-02
      -3.5212675912454680e-02 1.1750960001437182e-02
